tree
version=v3
num_class=1
num_tree_per_iteration=1
label_index=0
max_feature_idx=70
objective=binary sigmoid:1
feature_names=neighbor_latlon_dist neighbor_latlon_rank name_sim name_gesh name_leven name_jaro name_lcs name_len_diff name_nleven name_nlcsk name_nlcs address_sim address_gesh address_leven address_jaro address_lcs address_len_diff address_nleven address_nlcsk address_nlcs city_sim city_gesh city_leven city_jaro city_lcs city_len_diff city_nleven city_nlcsk city_nlcs state_sim state_gesh state_leven state_jaro state_lcs state_len_diff state_nleven state_nlcsk state_nlcs zip_gesh zip_leven zip_jaro zip_lcs url_gesh url_leven url_jaro url_lcs url_len_diff url_nleven url_nlcsk url_nlcs phone_gesh phone_leven phone_jaro phone_lcs categories_sim categories_gesh categories_leven categories_jaro categories_lcs categories_len_diff categories_nleven categories_nlcsk categories_nlcs country_gesh country_leven country_jaro country_lcs country_len_diff country_nleven country_nlcsk country_nlcs
feature_infos=[0:0.81788499999999997] [1:30] [0:1] [0:1] [0:59] [0:1] [0:42] [0:56] [0:1] [0:1] [0:1] [0:1] [0:1] [0:127] [0:1] [0:127] [0:126] [0:1] [0:1] [0:1] [0:1] [0:1] [0:36] [0:1] [0:22] [0:36] [0:1] [0:1] [0:1] [0:1] [0:1] [0:32] [0:1] [0:32] [0:31] [0:1] [0:1] [0:1] [0:1] [0:10] [0:1] [0:8] [0:1] [0:196] [0:1] [0:108] [0:195] [0:1] [0:1] [0:1] [0:1] [0:17] [0:1] [0:13] [0:1] [0:1] [0:92] [0:1] [0:51] [0:92] [0:1] [0:1] [0:1] [0:1] [0:2] [0:1] [0:2] none [0:1] [0:1] [0:1]
tree_sizes=1402 2472 2563 2569 2052 2460 2585 2366 2443 3571 5234 4806 5494 4779 3017 3160 2715 2826 3959 2697 3232 3355 2675 2791 3983 3987 2707 3197 3515 3324 2089 2156 2395 2615 3162 2689 2944 3289 3233 3282 3768 3582 4313 4080 3463 3028 3888 6786 5702 5460 5148 5526 4125 6390 4780 4546 3925 3368 4378 3799 4242 5543 5460 6702 5423 8488 7756 6585 6790 6278 5009 4267 4249 4148 7119 5550 5247 5887 5567 5112 6770 4975 4903 5437 5324 4481 4698 4597 3827 3175 3080 2635 2952 2643 2310 2304 2530 2642 2962 2744 3602 2842 1978 1767 2375 2297 3366

Tree=0
num_leaves=12
num_cat=0
split_feature=1 2 0 2 2 54 0 3 62 60 0
split_gain=144703 544.359 1734.08 58.7144 415.677 1.80571 33.7552 54.9824 0.257165 33.5176 56.7921
threshold=7.5000000000000009 0.8691798850000001 0.00099570210000000025 0.34982942000000006 0.36696202500000002 0.97557205000000013 0.00045252513500000007 0.18286312000000002 0.028174603500000003 0.97259760000000017 0.0018680627000000002
decision_type=2 2 2 2 2 2 2 2 2 2 2
left_child=-1 3 -3 5 -5 8 7 -7 9 10 -2
right_child=1 2 -4 4 -6 6 -8 -9 -10 -11 -12
leaf_value=187.96257977113459 1.3904883508592434 37.918169131198141 -7.6881602222324945 8.1376590353727032 -7.7004419965649715 1.3904883508596093 -7.7037423234403608 -7.6714163503578972 -7.7049011717189044 -7.7047411811835289 -7.6739920301357394
leaf_weight=0.036817218642680838 0.0099505996331566982 0.0099505996331562541 0.034827098716050386 0.017911079339682057 0.13333803508430719 0.0099505996331562541 0.51345094107091427 0.016916019376367331 79.57594032632187 3.5807232779916376 0.018408609321340919
leaf_count=74 20 20 70 36 268 20 1032 34 159942 7197 37
internal_value=-7.60486 -7.69299 3.2087 -7.69894 -5.73708 -7.70251 -7.52091 -4.13074 -7.7037 -7.67704 -4.31244
internal_weight=0 83.9214 0.0447777 83.8766 0.151249 83.7253 0.540318 0.0268666 83.185 3.60908 0.0283592
internal_count=168750 168676 90 168586 304 168282 1086 54 167196 7254 57
is_linear=0
shrinkage=1


Tree=1
num_leaves=22
num_cat=0
split_feature=2 2 2 0 0 61 0 16 57 8 55 54 4 7 0 0 55 6 3 10 3
split_gain=13912.9 81886.9 5345.63 25538.4 36013.4 38.4162 16.694 5.80498 5.69973 4.01931 2.39211 12.6827 2.22484 0.401021 0.324906 1.25406 0.23928 0.892077 0.0702294 0.021759 0.19366
threshold=0.34982942000000006 0.36696202500000002 0.9649658000000001 0.0015155174500000002 0.0012349167000000002 0.97826087500000003 0.0018204525000000001 1.5000000000000002 0.67523310000000014 0.87609650000000017 0.054424287500000008 0.97557205000000013 14.500000000000002 3.5000000000000004 0.00042490927500000005 0.00045252513500000007 0.054424287500000008 1.5000000000000002 0.086335405000000018 0.090097405000000005 0.34178434500000004
decision_type=2 2 2 2 2 2 2 2 2 2 2 2 2 2 2 2 2 2 2 2 2
left_child=5 -2 -3 4 -4 -1 7 9 -9 12 -10 -12 16 18 -13 -16 -7 -18 -11 -20 -21
right_child=1 2 3 -5 -6 6 -8 8 10 13 11 14 -14 -15 15 -17 17 -19 19 20 -22
leaf_value=-0.10003646566142069 -286.38833432014775 -0.095134680764286939 -455.9827390198941 -0.077899534593223685 0 -0.49411936753624658 -0.099864997129289146 -0.099035575852296248 -0.49657556013497495 -0.075910788964190609 -0.099544986017829198 -0.49968678602556837 -0.09813674079290502 -0.096968642799764734 -0.49510654781475172 -0.094548935996335445 -0.49105932115361811 -0.093645856797578461 0.12038635730556801 -0.089731490659409857 0.11977186088805028
leaf_weight=69.780800310370978 0.010517396265639689 0.12119432131294164 0.0022890038962942996 0.026094644417753443 0.0036624062340706587 0.32279711798764565 3.3311092448420814 0.59340399579377834 2.7455766203347594 0.023862772097345442 1.1989022693596778 2.5638005814398643 0.31343356607249007 0.1940463442588225 0.32198802399216209 0.10817494941875339 0.16139827109873295 0.092768469039583579 0.16004764894023538 0.057180115225492045 0.16049785632640123
leaf_count=155005 37 298 48 59 8 10 7397 1318 89 53 2665 42 696 431 8 240 5 208 2 128 3
internal_value=0 -29.2173 -9.82124 -45.4731 -215.797 -0.128821 -0.291414 -0.362096 -0.397795 -0.180676 -0.423256 -0.375018 -0.315101 0.0196259 -0.485092 -0.395989 -0.431727 -0.348902 0.077307 0.0884816 0.0622939
internal_weight=0 0.163758 0.15324 0.0320461 0.00595141 82.1298 12.349 9.01788 7.53185 1.48603 6.93844 4.19287 0.890397 0.595635 2.99396 0.430163 0.576964 0.254167 0.401588 0.377726 0.217678
internal_count=168750 450 413 115 56 168300 13295 5898 4362 1536 3044 2955 919 617 290 248 223 213 186 133 131
is_linear=0
shrinkage=0.1


Tree=2
num_leaves=23
num_cat=0
split_feature=2 14 22 2 2 0 61 0 16 8 57 4 55 54 7 3 0 0 55 3 10 3
split_gain=27211.9 111296 112896 145.322 2372.72 2708.7 20.7573 7.22688 2.58117 2.61478 2.19423 0.913356 0.659551 4.72794 0.356778 0.0627842 0.055603 0.454169 0.0448515 0.291676 0.0183035 0.171409
threshold=0.9649658000000001 0.65590738000000004 9.5000000000000018 0.34982942000000006 0.37487163500000004 0.0029198165500000004 0.97826087500000003 0.0018204525000000001 1.5000000000000002 0.87609650000000017 0.67523310000000014 14.500000000000002 0.054424287500000008 0.97557205000000013 3.5000000000000004 0.086335405000000018 0.00042490927500000005 0.00045252513500000007 0.054424287500000008 0.16568628000000002 0.090097405000000005 0.34178434500000004
decision_type=2 2 2 2 2 2 2 2 2 2 2 2 2 2 2 2 2 2 2 2 2 2
left_child=3 -2 -3 6 5 -5 -1 8 9 11 -10 18 -12 -14 15 -11 -15 -18 -8 -20 -17 -22
right_child=1 2 -4 4 -6 -7 7 -9 10 14 12 -13 13 16 -16 20 17 -19 19 -21 21 -23
leaf_value=-0.10003126883174657 -0.075190643265286683 897.89689718893499 0 130.6563851874468 -0.094372865307373183 0 -0.34173299594774997 -0.099841822783825113 -0.098926532273901704 -0.074088220164257396 -0.34285850457373618 -0.097936631859382187 -0.099488472689176724 -0.34299526836576855 -0.096653287667095897 0.11716038540948166 -0.34178308921447825 -0.09400585999649208 -0.33146073311176427 -0.092290842839401491 -0.08877847999885112 0.1164422418345757
leaf_weight=63.143394991115201 0.023144375241826221 0.0021176053269300601 0.0025411263923160732 0.0020560642587941899 0.10485927719855685 0.0032897028140723705 0.41382814152166136 3.0147774737561113 0.53749788011191313 0.022119834262412041 3.5222002656664682 0.28415928961476311 1.0853980053507255 3.3069483909057458 0.17612811981234699 0.14862497441936284 0.41350343986414362 0.098423757590353489 0.21471091138664633 0.076423605729360133 0.052276766858994961 0.14919021085370332
leaf_count=155005 71 38 6 25 283 27 10 7397 1318 53 89 696 2665 42 431 2 8 240 24 189 128 3
internal_value=0 97.0978 494.64 -0.118878 3.49332 62.8711 -0.124123 -0.236618 -0.275824 -0.15527 -0.296425 -0.252326 -0.30895 -0.284431 0.0190335 0.0752277 -0.336824 -0.295396 -0.313622 -0.27092 0.0862702 0.0605464
internal_weight=0 0.0278031 0.00465873 76.7698 0.110205 0.00534577 76.6596 13.5162 10.5014 1.53746 8.96397 0.989122 8.42647 4.90427 0.54834 0.372212 3.81888 0.511927 0.704963 0.291135 0.350092 0.201467
internal_count=168750 115 44 168635 335 52 168300 13295 5898 1536 4362 919 3044 2955 617 186 290 248 223 213 133 131
is_linear=0
shrinkage=0.1


Tree=3
num_leaves=23
num_cat=0
split_feature=8 14 22 14 2 2 2 0 61 0 16 8 57 4 7 55 54 3 1 5 0 0
split_gain=3987.44 12582.6 12107.6 15907.4 248.12 2268.35 805.112 1564.04 12.3826 3.7339 1.4487 1.90489 1.0658 0.510576 0.278265 0.248766 2.27151 0.0255774 0.166887 0.0182038 0.00432755 0.209632
threshold=1.0000000180025095e-35 0.61375525000000009 12.500000000000002 0.63012257000000005 0.36696202500000002 0.38097362000000007 0.33819171000000009 0.0010567354500000002 0.97826087500000003 0.0018204525000000001 1.5000000000000002 0.89417691500000018 0.67523310000000014 14.500000000000002 3.5000000000000004 0.054424287500000008 0.97557205000000013 0.34178434500000004 9.5000000000000018 0.43589882000000008 0.00042490927500000005 0.00045252513500000007
decision_type=2 2 2 2 2 2 2 2 2 2 2 2 2 2 2 2 2 2 2 2 2 2
left_child=1 -1 3 -3 6 -6 8 -8 -2 10 11 13 -12 19 17 -14 -17 18 -13 -10 -18 -22
right_child=4 2 -4 -5 5 -7 7 -9 9 -11 12 14 15 -15 -16 16 20 -19 -20 -21 21 -23
leaf_value=-0.070014915310360248 -0.10002639066082331 0 0 -446.2786188113227 -50.530088909588244 -0.093429830895628327 78.939898406407238 -0.028380760306694636 -0.048334098809943875 -0.099817022831839644 -0.098806226509191852 0.10883359865878697 -0.27269857087417532 -0.098024164893144583 -0.095317977715586519 -0.099426946735177574 -0.27254187803689539 0.11341712669851714 -0.08966849312345937 -0.25800891322413649 -0.27183662932346192 -0.093359365055723037
leaf_weight=0.018984871800056591 57.129041798558319 0.0012422058789525172 0.0025434220442548394 0.0012399102270137519 0.0089028250076797627 0.08980995509773497 0.0027904894377702716 0.007373838045168668 0.010605890565783538 2.7277889233955639 0.48653856193413858 0.1413473633583634 3.9570246571674925 0.29709471872774884 0.12614919408224523 0.98268711133277964 3.718514821928693 0.13843386818189174 0.0568641975405626 0.76378575214766897 0.46477634814800683 0.08885285776341334
leaf_count=62 154983 6 6 37 30 272 22 43 31 7395 1317 13 89 802 340 2665 41 3 149 198 8 238
internal_value=0 -40.0594 -165.961 -287.109 -0.123455 -5.10842 -0.116456 26.7354 -0.120678 -0.205139 -0.23066 -0.139456 -0.245021 -0.212686 0.0291038 -0.252677 -0.237457 0.0773527 0.0492119 -0.255848 -0.269059 -0.244314
internal_weight=0 0.0240104 0.00502554 0.00248212 71.1984 0.0987128 71.0997 0.0101643 71.0895 13.9605 11.2327 1.53428 9.69839 1.07149 0.462795 9.21186 5.25483 0.336645 0.198212 0.774392 4.27214 0.553629
internal_count=168750 111 49 43 168639 302 168337 65 168272 13289 5894 1536 4358 1031 505 3041 2952 165 162 229 287 246
is_linear=0
shrinkage=0.1


Tree=4
num_leaves=18
num_cat=0
split_feature=2 14 14 2 2 0 61 0 16 8 57 4 7 55 54 3 58
split_gain=3589.05 13286.3 13078.4 1105.02 11118.6 23538.5 7.77186 2.11061 0.897095 1.49817 0.578236 0.295695 0.247576 0.106322 1.22717 0.0222197 0.158048
threshold=0.9649658000000001 0.61375525000000009 0.65590738000000004 0.33819171000000009 0.38097362000000007 0.0020637930000000004 0.97826087500000003 0.0018204525000000001 1.5000000000000002 0.89417691500000018 0.67523310000000014 14.500000000000002 3.5000000000000004 0.054424287500000008 0.97557205000000013 0.34178434500000004 13.500000000000002
decision_type=2 2 2 2 2 2 2 2 2 2 2 2 2 2 2 2 2
left_child=3 -2 -3 6 5 -5 -1 8 9 11 -10 -8 15 -12 -15 16 -11
right_child=1 2 -4 4 -6 -7 7 -9 10 12 13 -13 -14 14 -16 -17 -18
leaf_value=-0.10002177497191225 -0.067952930590031768 0 -333.22181593923892 -357.98715383399451 -0.092787712128976921 -0.0059148351115530596 -0.22341197495052692 -0.099790461889138038 -0.098675317247858454 -0.089222802327819012 -0.23158341961617879 -0.09781432803522537 -0.094847096994793378 -0.099359800159103465 -0.22913082560154147 0.11062414937307091 0.10927986637683751
leaf_weight=51.694758401659783 0.017702060984453649 0.0020915436616633096 0.0016999134513966934 0.0017925005231507881 0.08180454606190328 0.0053751521627418697 0.79704114062769693 2.4688302135036784 0.44079481807420862 0.054493273579282575 4.1793949485290778 0.26937272830400616 0.11468793320818804 0.88974398348364037 4.5004499520873651 0.12828472838737071 0.12945115781622007
leaf_count=154983 62 9 44 43 268 52 229 7395 1317 154 89 802 340 2665 287 3 8
internal_value=0 -40.0849 -187.809 -0.133115 -11.2079 -122.461 -0.117932 -0.184148 -0.202198 -0.12889 -0.21307 -0.192276 0.0283554 -0.218277 -0.207825 0.0753647 0.0476058
internal_weight=0 0.0214935 0.00379146 65.7563 0.0889722 0.00716765 65.6673 13.9725 11.5037 1.49333 10.0104 1.06641 0.426917 9.56959 5.39019 0.312229 0.183944
internal_count=168750 115 53 168635 363 95 168272 13289 5894 1536 4358 1031 505 3041 2952 165 162
is_linear=0
shrinkage=0.1


Tree=5
num_leaves=22
num_cat=0
split_feature=6 0 4 22 14 14 2 2 0 61 0 16 8 57 7 4 34 55 54 3 58
split_gain=20955 27923.7 1897.61 14777.9 12499.4 3102.68 485.053 4294.53 11252.6 5.03894 1.26194 0.607805 1.20799 0.33588 0.220722 0.177378 0.0560093 0.0338359 0.663899 0.0190751 0.140227
threshold=21.500000000000004 0.0028150905000000003 1.0000000180025095e-35 7.5000000000000009 0.49560080500000003 0.55884908000000011 0.34982942000000006 0.38883050000000002 0.00059448503000000005 0.97826087500000003 0.0018204525000000001 1.5000000000000002 0.89417691500000018 0.67523310000000014 3.5000000000000004 14.500000000000002 14.500000000000002 0.054424287500000008 0.97557205000000013 0.34178434500000004 13.500000000000002
decision_type=2 2 2 2 2 2 2 2 2 2 2 2 2 2 2 2 2 2 2 2 2
left_child=2 -2 3 4 -1 -5 9 8 -8 -4 11 12 15 -13 19 -11 17 -15 -19 20 -14
right_child=1 -3 6 5 -6 -7 7 -9 -10 10 -12 13 14 16 -16 -17 -18 18 -20 -21 -22
leaf_value=0 376.03561414842153 0 -0.10001738217372101 -0.02382174632389181 245.71285818333573 -105.1857452844869 267.26006533542392 -0.091180209260352543 -0.0045051242081542075 -0.20030916881195476 -0.099761909075370983 -0.098531773276464618 -0.088231282406582456 -0.20441447161157528 -0.09433328997270353 -0.097584241328654064 -0.091922433420279462 -0.099216853967875426 -0.20318160276835606 0.10800244773696502 0.10642203974788658
leaf_weight=0.0038481233641495241 0.0024551365931974036 0.0046033181133680046 46.77680386355496 0.0068731597857549787 0.0034733212378341705 0.0037523109931498766 0.001242668367921306 0.066793424775823951 0.0052813405636698008 0.79988730924378504 2.2352125212491947 0.39940146749722671 0.049844849767396116 4.2561397657846065 0.10431642498588189 0.24428714258829132 0.073008215375012564 0.73666305528604414 4.561152203954407 0.1187738033477217 0.12014297003042884
leaf_count=15 34 17 154988 22 26 25 23 240 65 229 7397 1318 154 89 340 802 244 2437 274 3 8
internal_value=0 161.172 -0.0958325 31.5463 132.04 -43.0574 -0.10574 7.96806 79.5915 -0.115669 -0.169064 -0.182524 -0.120601 -0.191337 0.0276778 -0.176871 -0.195125 -0.195852 -0.188841 0.0736538 0.0462382
internal_weight=0 0.00705845 60.5669 0.0179469 0.00732144 0.0106255 60.549 0.0733174 0.00652401 60.4756 13.6988 11.4636 1.43725 10.0264 0.393078 1.04417 9.62696 9.55396 5.29782 0.288762 0.169988
internal_count=168750 51 168699 88 41 47 168611 328 88 168283 13295 5898 1536 4362 505 1031 3044 2800 2711 165 162
is_linear=0
shrinkage=0.1


Tree=6
num_leaves=23
num_cat=0
split_feature=6 0 6 2 18 16 2 58 2 7 61 0 16 8 57 7 4 34 3 58 55 54
split_gain=14135.6 25435.3 24417 3707.05 6138.96 14626.6 243.52 1648.89 1159.18 2762.27 3.32769 0.778792 0.437148 0.992321 0.202508 0.196803 0.108037 0.0305841 0.0163723 0.124452 0.0100715 0.4029
threshold=20.500000000000004 0.0046733469000000008 21.500000000000004 0.9649658000000001 0.55086207000000009 4.5000000000000009 0.38097362000000007 1.5000000000000002 0.33447277500000006 9.5000000000000018 0.97826087500000003 0.0018204525000000001 1.5000000000000002 0.89417691500000018 0.67523310000000014 3.5000000000000004 14.500000000000002 14.500000000000002 0.34178434500000004 13.500000000000002 0.054424287500000008 0.97557205000000013
decision_type=2 2 2 2 2 2 2 2 2 2 2 2 2 2 2 2 2 2 2 2 2 2
left_child=3 2 -2 6 5 -5 8 -8 10 -10 -1 12 13 16 -14 18 -12 20 19 -15 -16 -22
right_child=1 -3 -4 4 -6 -7 7 -9 9 -11 11 -13 14 15 17 -17 -18 -19 -20 -21 21 -23
leaf_value=-0.1000131539177519 0 -0.020392373194967253 -533.69180393317777 -244.63698261363734 -4.2130709648764251 -0.015426657963206056 -47.505686333094303 -0.089651612110445422 -0.0071257843118805566 130.76729962109962 -0.1829117572868583 -0.099730788670662082 -0.098374276096203125 -0.087164078174454984 -0.1851143210037432 -0.093773153334950024 -0.097331952410514233 -0.091151246147342102 0.10549958108065319 0.10364426000500403 -0.099129324794905771 -0.18439554083690751
leaf_weight=42.319358833570732 0.0013865926302946124 0.0065345180046278983 0.001247785723536678 0.0030869078182139686 0.022123487549833953 0.0060919933021068573 0.0074251540936519636 0.056823090882971883 0.0054585561187282519 0.0012893416426282833 0.78894498429144622 2.0221828240319146 0.36194499765406263 0.045637911738594883 4.2306035236106219 0.094931043597171083 0.22158731985837221 0.066599845231395061 0.1099134610267356 0.11150088801514357 0.6671206690953112 4.524546479624405
leaf_count=154953 5 23 39 36 24 30 37 214 69 32 229 7394 1317 154 89 340 802 244 3 8 2437 271
internal_value=0 -118.048 -330.115 -0.135195 -34.0018 -98.2835 -0.115521 -6.22127 -0.108341 38.5685 -0.113741 -0.157554 -0.167918 -0.113835 -0.175391 0.0269998 -0.164755 -0.178265 0.0719869 0.0448651 -0.178818 -0.173556
internal_weight=0 0.0091689 0.00263438 55.6672 0.0313024 0.0091789 55.6359 0.0642482 55.5716 0.0067479 55.5649 13.2455 11.2233 1.37252 9.85082 0.361983 1.01053 9.48887 0.267052 0.157139 9.42227 5.19167
internal_count=168750 67 44 168683 90 66 168593 251 168342 101 168241 13288 5894 1536 4358 505 1031 3041 165 162 2797 2708
is_linear=0
shrinkage=0.1


Tree=7
num_leaves=21
num_cat=0
split_feature=6 0 1 2 9 2 4 60 19 61 0 16 8 7 57 4 8 54 55 54
split_gain=25591.3 41623.9 34952.5 122.607 3478.55 23554.4 39381.9 4483.96 110.898 2.22679 0.491796 0.32855 0.827819 0.175451 0.124821 0.0660107 0.0141547 0.111116 0.00188666 0.272652
threshold=20.500000000000004 0.016534130000000005 12.500000000000002 0.33819171000000009 0.82085560000000013 0.38828984000000005 18.500000000000004 0.81509970000000009 0.90454547000000007 0.97826087500000003 0.0018204525000000001 1.5000000000000002 0.89417691500000018 3.5000000000000004 0.67523310000000014 14.500000000000002 0.89915253000000017 0.97557205000000013 0.054424287500000008 0.97557205000000013
decision_type=2 2 2 2 2 2 2 2 2 2 2 2 2 2 2 2 2 2 2 2
left_child=3 2 -2 9 5 6 7 -5 -6 -1 11 12 15 16 -13 -11 -14 -18 -16 -20
right_child=1 -3 -4 4 8 -7 -8 -9 -10 10 -12 14 13 -15 18 -17 17 -19 19 -21
leaf_value=-0.10000906223395181 681.16247566562572 -0.0069047611869279702 0 -118.63267928433491 -0.43106491801535418 -0.085623940249372532 -553.22886472935625 56.551725537596703 2.3434171233769741 -0.16946234251748074 -0.099697168524471969 -0.09820142157335876 0.1031792554732909 -0.093163144109670137 -0.17072037909806703 -0.097055339446613889 -0.086083778534131725 0.10116414915423307 -0.099119341238118913 -0.17022509433141997
leaf_weight=38.295252933923614 0.0012012073424959571 0.0054433330078609288 0.0011447424185462296 0.0015258860980077804 0.7211885651800003 0.040662270330358297 0.0011683916908559935 0.0025232805063049035 0.17894365477868002 0.76754212731611804 1.830606255767633 0.32805113098584016 0.10164714412530884 0.086438017373438925 4.1333126485696976 0.20104647512198426 0.042023755318950862 0.1033849713858217 0.66163630035589438 4.4184264357609209
leaf_count=154959 32 20 15 38 100 190 37 29 41 229 7395 1317 7 340 89 802 149 9 2665 287
internal_value=0 170.517 448.084 -0.13304 -1.26051 -27.8177 -209.089 -19.7864 0.121928 -0.112079 -0.1485 -0.156683 -0.108241 0.0263127 -0.163229 -0.155064 0.0703367 0.0434152 -0.165479 -0.161084
internal_weight=0 0.00778928 0.00234595 51.9154 0.946012 0.0458798 0.00521756 0.00404917 0.900132 50.9694 12.6741 10.8435 1.30208 0.333494 9.54143 0.968589 0.247056 0.145409 9.21338 5.08006
internal_count=168750 67 47 168683 435 294 104 67 141 168248 13289 5894 1536 505 4358 1031 165 158 3041 2952
is_linear=0
shrinkage=0.1


Tree=8
num_leaves=22
num_cat=0
split_feature=6 7 15 6 8 2 23 0 2 57 61 16 61 0 16 8 7 57 4 3 58
split_gain=22350.6 29780.6 27539.7 63.8516 4267.85 83.4237 230.726 1780.25 7913.36 30.0562 19.3482 35.9809 1.50496 0.313421 0.255288 0.699749 0.156387 0.0771722 0.0395281 0.0126771 0.0992492
threshold=20.500000000000004 8.5000000000000018 11.500000000000002 13.500000000000002 1.0000000180025095e-35 0.33819171000000009 0.47248931000000005 0.0033003322000000005 0.398119045 0.38914141500000005 0.47140522000000001 13.500000000000002 0.97826087500000003 0.0018204525000000001 1.5000000000000002 0.89417691500000018 3.5000000000000004 0.67523310000000014 14.500000000000002 0.34178434500000004 13.500000000000002
decision_type=2 2 2 2 2 2 2 2 2 2 2 2 2 2 2 2 2 2 2 2 2
left_child=3 2 -2 5 -5 12 9 8 -8 -7 11 -11 -1 14 15 18 19 -16 -14 20 -17
right_child=1 -3 -4 4 -6 6 7 -9 -10 10 -12 -13 13 -15 17 16 -18 -19 -20 -21 -22
leaf_value=-0.10000494108757152 -613.32024000699585 0 0 108.23447244247876 -0.097704391068239596 0.6949573461696813 -142.84503123072352 -1.0282372484691729 -0.069745262603938527 -0.11113459337433305 -0.32255850925625218 -2.4951850266150797 -0.15884598446941836 -0.099657709604363709 -0.097999414948270053 -0.084972639080701184 -0.092499603760262686 -0.15550819759561926 -0.096727656724766908 0.10138219165241012 0.098497182861569041
leaf_weight=34.423025976269855 0.0011189777287644578 0.0043124941003043205 0.0011191696394234896 0.0026885754341482429 0.25728051844100719 0.24494583905206302 0.0038996504452454275 0.2610267729323823 0.018728963068497251 0.12849865783937264 1.0878788997056608 0.12485325458692387 0.73832598509761627 1.6442074428487092 0.2955746950901802 0.038861377601278946 0.07875247675110586 8.8404419564831169 0.18109523186285514 0.09378331690095365 0.096000741003081203
leaf_count=153931 32 21 14 27 1163 15 36 78 79 35 101 20 227 7338 1309 154 340 3023 796 3 8
internal_value=0 -172.191 -401.379 -0.128655 1.43119 -0.13709 -0.791849 -3.41357 -29.6999 -0.320837 -0.507101 -1.29316 -0.110695 -0.141288 -0.147835 -0.10356 0.0256144 -0.153713 -0.147272 0.0686994 0.0417127
internal_weight=0 0.00655064 0.00223815 48.5599 0.259969 48.2999 1.86983 0.283655 0.0226286 1.58618 1.34123 0.253352 46.4301 12.007 10.3628 1.22682 0.307398 9.13602 0.919421 0.228645 0.134862
internal_count=168750 67 46 168683 1190 167493 364 193 115 171 156 55 167129 13198 5860 1528 505 4332 1023 165 162
is_linear=0
shrinkage=0.1


Tree=9
num_leaves=32
num_cat=0
split_feature=45 0 8 6 58 6 8 3 3 57 57 18 34 5 12 3 5 61 7 16 8 0 0 7 57 51 4 2 0 0 1
split_gain=566.484 294.286 8436.16 468.499 4174.1 151.528 9644.01 149.049 14.0489 109.029 439.423 170.881 91.9575 66.3203 215.903 4.66168 12.9473 1.01803 0.251638 0.215653 0.416155 0.195196 0.194832 0.120825 0.047327 0.0470397 0.0394227 0.0257766 0.00715057 0.00348079 0.0647202
threshold=46.500000000000007 0.000176974465 0.68042552000000012 19.500000000000004 7.5000000000000009 13.500000000000002 0.43614130000000007 0.39801980000000009 0.5028735700000001 0.33421053000000006 0.40953735500000005 0.12414383500000002 13.500000000000002 0.74372953000000008 0.099645390000000014 0.46737588500000005 0.49067896500000002 0.97826087500000003 1.0000000180025095e-35 1.5000000000000002 0.89417691500000018 0.0010362170000000001 0.0018204525000000001 3.5000000000000004 0.67523310000000014 12.500000000000002 14.500000000000002 0.37079692000000003 0.0010362170000000001 0.0010152908000000003 9.5000000000000018
decision_type=2 2 2 2 2 2 2 2 2 2 2 2 2 2 2 2 2 2 2 2 2 2 2 2 2 2 2 2 2 2 2
left_child=1 2 -1 5 -5 8 -7 -4 13 11 -11 -10 18 15 -15 17 -17 27 -12 20 26 23 24 29 -21 -20 28 -3 -19 30 -22
right_child=-2 3 7 4 -6 6 -8 -9 9 10 12 -13 -14 14 -16 16 -18 19 25 22 21 -23 -24 -25 -26 -27 -28 -29 -30 -31 -32
leaf_value=174.40923935511745 -28.564261642985301 -0.10000079482379365 -0.094873996483685885 37.049520269100384 -97.81003839433923 -163.57696461164858 -0.097409988136146208 15.682835205546466 27.310591781072358 -44.992985666488316 -0.26397760910386631 -0.015275298423438728 -3.7627537298226148 28.214045312736779 -0.051982612601276804 -2.0654222856350599 -0.095177734573200404 -0.15095566470484734 -0.094475170073446288 -0.09773061533175588 0.096025920092416381 -0.096552879849256076 -0.09945997922693145 -0.088778397490870464 -0.14796615663707099 -0.18854310047771061 -0.098286467269201191 -0.12746784228925848 -0.092181848016168202 0.10271705734802626 -0.076603498446145168
leaf_weight=0.001862885445006123 0.0060052808548779471 30.850904225735579 0.11559646298701409 0.0043728791933962388 0.0030876054079271853 0.0026665719633446319 0.2284458045600104 0.0053106463456060729 0.0026336299275382764 0.0012141549086662753 1.1867397696787518 0.0060803049276763792 0.076919429600820766 0.0025176871450643965 0.011490720615256578 0.045148337405406802 0.12283854388078908 0.69465395279985276 0.10368789960921265 0.26103317832166695 0.089136550843249895 0.17201115482021123 1.06987681868486 0.052369691722560674 8.373062483420652 0.25711362411675509 0.34503390494501218 0.49502681236117396 0.075556715059065027 0.085175207175780088 0.024614952169940807
leaf_count=65 35 152476 579 31 30 38 1116 29 18 7 98 37 43 18 61 14 610 139 474 1275 12 834 5279 248 2920 26 1688 47 402 2 99
internal_value=0 -0.124858 4.74445 -0.138366 -23.6684 -0.133892 -2.68239 0.716996 -0.120556 -0.408329 -0.471456 10.1533 -0.410212 -0.109538 6.53626 -0.11188 -0.63675 -0.109783 -0.240932 -0.135738 -0.0996903 -0.0139 -0.141391 0.0408521 -0.146517 -0.163227 -0.131764 -0.100455 -0.145965 0.0777531 0.053971
internal_weight=0 44.7662 0.12277 44.6434 0.00746048 44.636 0.231112 0.120907 44.4048 1.63439 1.62567 0.00871393 1.62446 42.7705 0.0140084 42.7564 0.167987 42.5885 1.54754 11.2425 1.53855 0.423308 9.70397 0.251296 8.6341 0.360802 1.11524 31.3459 0.770211 0.198927 0.113752
internal_count=168750 168715 673 168042 61 167981 1154 608 166827 703 648 55 641 166124 79 166045 624 165421 598 12898 3424 1195 9474 361 4195 500 2229 152523 541 113 111
is_linear=0
shrinkage=0.1


Tree=10
num_leaves=48
num_cat=0
split_feature=6 0 2 0 3 12 8 45 7 3 57 18 12 5 2 6 7 3 8 12 12 0 0 12 10 8 9 2 5 57 61 2 12 16 8 0 23 0 4 57 5 4 9 5 0 5 5
split_gain=23289 45163.4 16039.3 9084.03 40287.6 2878.34 921.93 518.212 915.691 170.226 9179.87 19158.7 4198 3846.55 637.351 459.383 3296.02 3043.29 296.893 668.934 292.726 662.153 163.9 262.554 52.7485 209.298 27.1163 457.942 3.11187 1.35974 0.700754 0.499597 0.302966 0.172944 0.356977 0.175046 0.154658 0.130464 0.0843307 0.0289611 0.028222 0.0236859 0.01406 0.0095579 0.00138563 0.000661376 0.0578551
threshold=18.500000000000004 0.0038956724000000003 0.12063717000000002 0.000176974465 0.39801980000000009 0.30848533000000006 0.73401362500000011 41.500000000000007 3.5000000000000004 0.46737588500000005 1.0000000180025095e-35 0.12414383500000002 1.0000000180025095e-35 0.66671843000000008 0.4381572700000001 12.500000000000002 1.5000000000000002 0.52730885000000016 0.58898945000000014 0.10933997500000002 0.065044950000000018 0.0012617512500000003 0.00034167311000000007 0.071685512500000007 0.92582415000000007 0.8067345800000002 0.60232557500000017 0.34394890000000006 0.74372953000000008 0.37982146500000008 0.97826087500000003 0.33819171000000009 0.077524040000000016 1.5000000000000002 0.89417691500000018 0.0010362170000000001 0.43639122000000002 0.0018204525000000001 17.500000000000004 0.67523310000000014 0.28257275000000004 14.500000000000002 0.61721614000000014 0.66671843000000008 0.0010362170000000001 0.32081093000000011 0.55693325500000013
decision_type=2 2 2 2 2 2 2 2 2 2 2 2 2 2 2 2 2 2 2 2 2 2 2 2 2 2 2 2 2 2 2 2 2 2 2 2 2 2 2 2 2 2 2 2 2 2 2
left_child=3 2 -2 4 6 -6 -1 9 -9 14 11 -11 13 -12 18 20 17 -17 19 -5 21 -14 -22 -24 28 -26 27 31 30 -28 43 -25 -31 34 41 38 -34 39 40 -35 -36 44 -38 -20 -32 -42 -47
right_child=1 -3 -4 7 5 -7 -8 8 -10 10 12 -13 15 -15 -16 16 -18 -19 24 -21 22 -23 23 26 25 -27 29 -29 -30 32 33 -33 36 37 35 -37 42 -39 -40 -41 45 -43 -44 -45 -46 46 -48
leaf_value=-48.214448550853248 -111.78250869080335 -525.59434431563955 235.89075000303751 -48.568623027129526 -116.51126781612091 -224.50491170491773 -0.094192500825915695 -72.163849734421063 0 -237.64782913939513 0 -0.047223752037079327 -48.538489829115306 -134.85254358441961 -32.105199397167361 0 -0.081856602783532892 169.56748287829154 -0.10004488503292633 -0.041478701689665047 15.836507924326382 -0.039896014760292281 -27.02995928787794 -0.094668976751314526 -26.488209406979308 -0.062229387241101268 0.11283662339584899 -16.641645784542305 -0.57090119598966726 -0.34001077458393647 -0.14374366553032189 -0.36786741816407847 -0.22554266446057913 -0.097500621382549391 -0.053867229225565416 -0.096204390862671546 -0.17491553558189432 -0.099401680591408026 -0.085398097662629013 -0.14158943113088027 0.1019339915741167 -0.09812623535758766 -0.12217218986361443 -0.1216092761559035 -0.091388796611711676 -0.073395779740272407 0.099052370395794023
leaf_weight=0.0031442864274130447 0.0025762094898234469 0.0014727193378543746 0.0011170320440214709 0.0031140029164323799 0.014432461699470878 0.0052313847118057302 0.10199308684241259 0.0017669911103415994 0.0048607909557190276 0.0040490887276488649 0.0040444498299624368 0.01036497343739029 0.003116562136585955 0.003448153963943934 0.0052302504233655558 0.0019181924872099234 0.031968952889656066 0.0013551948140957393 28.055009864376192 0.0092498253943631425 0.005249794837255072 0.008975327480584383 0.0026910582548776976 0.11116925380838477 0.0027668357577316218 0.014878128829877824 0.12748351693153415 0.017100698669119507 0.14575072211300621 0.20627006333961606 0.65839661878999212 0.1964593380689621 1.2502843953548106 0.23729594916221319 0.012000587012153008 0.15629259283014107 0.2464586981514002 0.97197238731351454 0.040031791926594451 7.9002697627656744 0.079360537230968475 0.31608232865983155 0.20780931964475258 0.44921632979821779 0.068535663176589878 0.021533782928599976 0.079105212440481409
leaf_count=20 28 36 49 19 35 34 561 29 44 38 24 64 24 29 29 11 159 36 152686 52 38 47 20 638 20 81 2 59 43 2 138 4 117 1278 59 834 3 5297 197 2925 2 1706 193 537 400 100 3
internal_value=0 -194.62 21.122 -0.259365 -27.0907 -154.74 -1.97872 -0.178351 -26.2413 -0.173563 -0.98381 -77.9121 -0.494582 -70.6791 -0.123122 -0.247799 10.9257 93.4089 -0.118026 -15.0209 -0.417764 -15.3308 -0.335065 -0.377839 -0.112931 -5.43122 -0.335855 -1.18345 -0.110385 -0.200063 -0.108639 -0.271387 -0.221248 -0.13084 -0.097126 -0.0137787 -0.206392 -0.136072 0.0397708 -0.140377 0.0687662 -0.127635 -0.152207 -0.100407 -0.139627 0.0799571 0.0568751
internal_weight=0 0.00516596 0.00369324 41.7977 0.124801 0.0196638 0.105137 41.6729 0.00662778 41.6663 2.44022 0.0144141 2.4258 0.0074926 39.2261 2.41831 0.0352423 0.00327339 39.2209 0.0123638 2.38307 0.0120919 2.37098 2.36573 39.2085 0.017645 2.36304 0.324729 39.1909 2.03831 39.0451 0.307629 1.91082 10.5409 1.43134 0.388325 1.70455 9.10954 0.232032 8.13757 0.192 1.04301 0.454268 28.5042 0.726932 0.18 0.100639
internal_count=168750 113 77 168637 650 69 581 167987 73 167914 1508 102 1406 53 166406 1353 206 47 166377 71 1147 71 1076 1038 166306 101 1018 701 166205 317 166162 642 315 12939 3439 1195 313 9500 361 4203 164 2244 196 153223 538 105 103
is_linear=0
shrinkage=0.1


Tree=11
num_leaves=44
num_cat=0
split_feature=6 3 0 2 1 19 12 60 2 58 0 2 14 56 10 34 62 8 8 0 61 19 8 0 0 3 55 3 61 57 2 16 8 0 19 0 4 5 57 4 3 5 5
split_gain=17093 622.424 5715.49 4438.38 4277.82 13130.3 1272.3 660.625 244.959 1756.81 1297.27 219.015 118.794 666.797 71.3523 65.2233 204.753 23.6334 9.43204 241.255 5.90577 3.48776 3.23719 163.656 10.891 199.278 273.417 1.73726 0.466327 0.319438 0.312303 0.138321 0.308056 0.156391 0.103248 0.0851055 0.0750395 0.0258227 0.0162034 0.012907 0.00460527 0.000211921 0.0518835
threshold=18.500000000000004 0.47413024000000009 0.00032569890000000006 0.33160074 24.500000000000004 0.14185111500000003 0.028674204500000005 0.77167920000000012 0.19750292000000003 17.500000000000004 0.00042490927500000005 0.18912999500000002 0.49560080500000003 9.5000000000000018 0.79473685000000016 30.500000000000004 0.19669913500000002 0.64785372000000019 0.64785372000000019 0.00028861528000000006 0.34960318000000007 0.048003072500000007 0.67028988 0.00039778703000000007 0.000176974465 0.32811352500000007 0.14059798000000004 0.44590642500000005 0.97826087500000003 0.41670273000000008 0.33819171000000009 1.5000000000000002 0.89417691500000018 0.0010362170000000001 0.70185185000000005 0.0018204525000000001 17.500000000000004 0.28257275000000004 0.67523310000000014 14.500000000000002 0.43288289000000008 0.32081093000000011 0.55693325500000013
decision_type=2 2 2 2 2 2 2 2 2 2 2 2 2 2 2 2 2 2 2 2 2 2 2 2 2 2 2 2 2 2 2 2 2 2 2 2 2 2 2 2 2 2 2
left_child=1 15 3 4 5 -3 7 -4 9 10 -8 -12 13 -10 -5 18 -17 20 19 -1 -14 -22 23 -20 25 -24 -27 28 40 -15 -29 32 39 36 -23 38 37 -34 -33 -30 -26 -39 -43
right_child=-2 2 6 14 -6 -7 8 -9 12 -11 11 -13 17 29 -16 16 -18 -19 22 -21 21 34 24 -25 27 26 -28 30 31 -31 -32 35 33 -35 -36 -37 -38 41 -40 -41 -42 42 -44
leaf_value=-25.383866208594693 -171.4207619921973 -15.565647311869535 0 3.6953387901080315 -6.5831135249667643 -124.23120345916431 -68.74498133650853 95.490545829689324 -10.541418568596555 -66.441829631821506 -0.094435647968892727 -23.031540771587611 -0.67188458420908914 0.11056932422084226 -3.4735017220506075 -27.291417559272368 -0.051721770248621263 -1.1774810361478831 -16.909536154624682 -0.09394968683173005 0.19720458507981412 -0.21016181701550371 -0.093269694923447805 -0.12154045137744836 -0.10003748408660376 48.435602726520841 0 -0.091644632250434399 -0.13443947594429648 -0.10450002043029108 -0.33103417479872044 -0.097204468718208981 -0.051519341554400293 -0.095820279761422364 -0.12082811615988015 -0.099325786863724522 -0.084127783707070372 0.10036007072001632 -0.13622077926346199 -0.097915414576783558 -0.12009998248771081 -0.071463750915450083 0.097048200816458582
leaf_weight=0.0029253779939635424 0.0048335157344315807 0.03089097887277592 0.0011058834352318794 0.026667818427085876 0.028854243806563318 0.016692877150489949 0.0019027056550834911 0.0010880723980037921 0.075614391663086422 0.0035129906259498958 0.10651256061965059 0.0033346435666317112 0.24329415881817751 0.11762115386636654 0.026861630729399621 0.0026555668300706223 0.011424093761888798 0.28395081928854349 0.0049133149004757506 0.097901780006072289 0.25097484484103949 1.4991246436742041 0.087931152458614714 0.32789060142386073 25.173580540344126 0.0010521014955884303 0.0026719036395661533 0.070670416982465123 0.68034250719210898 0.16268057094879054 0.41866403055610135 0.21234869994077499 0.01137149627902545 0.14196213777177036 0.17760223974289657 0.86752561383926341 0.036756345478352159 0.072892412543296814 7.2079118555495825 0.28453210068983026 0.39387384475412446 0.02001056658627931 0.073000663003767841
leaf_count=18 113 9 25 23 2 42 9 25 66 28 709 21 93 2 19 18 72 42 32 626 17 128 542 778 151454 15 38 438 524 66 15 1261 59 835 74 5229 197 2 2882 1694 405 100 3
internal_value=0 -0.231504 -1.6012 -22.0397 -37.3452 -55.4693 -0.686691 62.393 -0.755457 -5.25434 -2.75418 -0.996746 -0.568994 -2.27396 0.0910433 -0.115749 -6.69168 -0.320781 -0.112992 -1.07469 -0.20801 -0.148887 -0.110261 -0.420801 -0.107345 0.974937 20.9838 -0.110168 -0.107536 -0.0124022 -0.297738 -0.126538 -0.0949215 -0.0137717 -0.201075 -0.131504 0.0385165 0.0670795 -0.135185 -0.124299 -0.100371 0.0784643 0.0551013
internal_weight=0 39.2631 3.05829 0.129968 0.0764381 0.0475839 2.92832 0.00219396 2.92613 0.115263 0.11175 0.109847 2.81086 0.355916 0.0535294 36.2048 0.0140797 2.45495 36.1907 0.100827 2.171 1.9277 36.0899 0.332804 35.7571 0.0916552 0.00372401 35.6654 35.1761 0.280302 0.489334 9.60865 1.32087 0.355994 1.67673 8.28779 0.214031 0.177275 7.42026 0.964875 25.5675 0.165904 0.0930112
internal_count=168750 168637 1400 95 53 51 1305 50 1255 767 739 730 488 134 42 167237 90 354 167147 644 312 219 166503 810 165693 595 53 165098 164645 68 453 12786 3414 1196 202 9372 361 164 4143 2218 151859 105 103
is_linear=0
shrinkage=0.1


Tree=12
num_leaves=51
num_cat=0
split_feature=6 33 55 7 0 3 22 7 1 58 7 9 6 35 57 8 8 19 8 14 62 3 8 12 23 5 62 60 5 12 6 0 55 21 58 3 2 61 9 16 1 5 5 4 58 31 0 57 0 0
split_gain=187.519 1773.92 10495.2 12997.8 417.002 5431.11 19157.6 3683.68 382.809 1422.01 1441.25 1057.87 693.737 826.65 363.194 771.846 350.479 243.507 218.614 138.731 165.807 36.5953 497.057 7196.91 519.118 684.42 30.9357 420.104 18.9801 879.005 13.431 6.85799 6.03107 3.67574 3.17179 0.801354 0.354528 0.319753 0.247444 0.112288 0.188901 0.169857 0.119709 0.08475 0.0663914 0.057374 0.0560955 0.00810695 0.00566308 0.00450944
threshold=12.500000000000002 2.5000000000000004 0.40175439000000007 6.5000000000000009 0.000176974465 0.32811352500000007 6.5000000000000009 4.5000000000000009 16.500000000000004 17.500000000000004 8.5000000000000018 0.71825396500000005 17.500000000000004 0.79655173000000012 0.68428452000000017 0.70900535000000009 0.64785372000000019 1.0000000180025095e-35 0.77459675000000006 0.35083543000000006 0.42462122000000008 0.47413024000000009 0.70087720000000009 0.077524040000000016 0.30131442500000011 0.62626725000000005 0.29679680000000003 0.75134408500000005 0.62626725000000005 0.07477288750000001 22.500000000000004 0.000176974465 0.077296490000000009 0.96648650000000014 5.5000000000000009 0.44590642500000005 0.33819171000000009 0.97826087500000003 0.38165267500000005 1.5000000000000002 9.5000000000000018 0.55693325500000013 0.55785936500000011 9.5000000000000018 13.500000000000002 3.5000000000000004 0.0018204525000000001 0.67523310000000014 0.11921852500000001 0.0010362170000000001
decision_type=2 2 2 2 2 2 2 2 2 2 2 2 2 2 2 2 2 2 2 2 2 2 2 2 2 2 2 2 2 2 2 2 2 2 2 2 2 2 2 2 2 2 2 2 2 2 2 2 2 2
left_child=4 8 16 -4 5 18 7 -7 17 11 -11 12 14 -14 -10 -16 -3 -2 -1 20 -19 35 28 -24 25 -25 27 -21 29 -23 -18 -28 -30 45 -35 37 -37 -6 -36 40 44 49 -43 -33 -39 48 47 -41 -34 -42
right_child=1 2 3 -5 21 6 -8 -9 9 10 -12 -13 13 -15 15 -17 30 19 -20 26 -22 22 23 24 -26 -27 31 -29 32 -31 -32 43 33 34 38 36 -38 39 -40 46 41 42 -44 -45 -46 -47 -48 -49 -50 -51
leaf_value=-23.310279548392714 24.434075712671259 -41.504611117523623 -317.24953876013842 0 -0.10033482235637531 149.32163226842877 -339.79486838541902 -45.170816428631468 -0.099771170025969053 -102.95083360645032 0 -40.218070182970131 -79.058131045970825 0 -57.950660789082647 -0.024732029377477233 -0.069217848863690354 0 -0.092368706533048114 -45.235534560698184 -30.651950919349538 -45.400387741331997 -192.08535484029181 -63.456220627705761 -0.093498918775112114 0 0.27367672399282716 -0.082064402597436192 0.17426282998593937 -0.11335824962052764 -3.6032199806504117 -0.20195740426191328 -0.1797547337937947 -0.20108197370423508 -0.81377573314050267 -0.12034926664618249 -0.26676033536122551 -0.080192722717240997 -0.59629549279253624 -0.096936621055610073 -0.1276277977377745 0.091957240546601093 -0.091730184114308 -0.099620871346443235 0.091992507579765959 -0.1166575946551005 -0.099253647267619094 -0.13170266129274819 -0.21707656549412518 -0.097913591885573303
leaf_weight=0.003282587342268258 0.0030596579308609364 0.0014006992860230638 0.0015205775998765594 0.0026516942598391324 23.058286210833828 0.0010050643177237353 0.0010589066368993372 0.0012053765121891047 0.20587602404550409 0.0019110121575067742 0.0025611962046241388 0.0064629870344075071 0.0015253893507178864 0.0027917884114185831 0.0024468065494147595 0.0069701410684501752 0.018482789295410008 0.0039126829533738796 0.077469352192565802 0.0012022563605569017 0.002253475829711693 0.0034017295870410738 0.0010803671011683355 0.0021472841927018113 0.059790681090817088 0.0037209928104857681 0.69444306777290876 0.032425937679745914 0.36071340389864204 0.16401437134884714 0.025876430794596672 0.49928781390190113 1.0130897323890704 0.25913631282426997 0.10639479756355291 0.28535874393536431 0.46482166455825791 0.029267939222340167 0.25428071894908094 0.19389449556947447 0.69310160269014853 0.068507944757584524 0.071413406636566437 0.12622884153770497 0.069359282912046183 0.17652828442498369 0.78703131840302454 6.7354945123574259 0.24876893891831509 0.28449171971442411
leaf_count=34 25 17 36 19 151359 31 35 16 927 21 19 36 18 38 21 47 130 30 514 11 22 33 31 22 124 27 29 237 48 218 2 22 250 69 2 677 15 191 63 1273 799 17 483 415 15 246 5240 2899 9 1888
internal_value=0 -1.24736 -19.6192 -154.655 -0.154919 -7.14999 -117.073 62.0727 -0.659374 -4.41861 -54.8128 -3.1825 -1.91294 -37.6011 -1.02445 -19.2419 -4.25215 -0.0202894 -1.31589 -0.0935988 -13.9708 -0.138098 -0.495291 -8.95165 -3.09442 -29.132 -0.0197464 -2.97051 -0.273508 -1.30062 -2.17575 0.0572426 -0.201706 -0.267892 -0.471845 -0.109124 -0.211967 -0.10669 -0.663905 -0.123027 -0.0930423 -0.104863 0 -0.182296 0.0355852 -0.179393 -0.127675 -0.130816 -0.187675 -0.1196
internal_weight=0 1.64329 0.0499322 0.00417227 35.4781 0.0840213 0.00326935 0.00221044 1.59336 0.230545 0.00447221 0.226073 0.21961 0.00431718 0.215293 0.00941695 0.0457599 1.36281 0.0807519 1.35975 0.00616616 35.3941 2.65307 0.0667393 0.065659 0.00586828 1.35359 0.0336282 2.58633 0.167416 0.0443592 1.31996 2.41891 2.0582 0.619812 32.741 0.75018 31.9908 0.360676 8.93256 1.21614 1.11751 0.139921 0.625517 0.0986272 1.43839 7.71642 6.92939 1.26186 0.977593
internal_count=168750 2122 204 55 166628 630 82 47 1918 1127 40 1087 1051 56 995 68 149 791 548 766 52 165998 1142 204 173 49 714 248 938 251 132 466 687 639 134 164856 692 164164 65 12805 3393 3187 500 437 206 505 9412 4172 259 2687
is_linear=0
shrinkage=0.1


Tree=13
num_leaves=44
num_cat=0
split_feature=11 3 6 19 1 0 3 14 7 8 59 60 3 57 22 8 1 24 8 8 12 13 8 0 61 0 5 31 1 61 3 45 16 1 3 3 10 5 0 51 60 57 0
split_gain=2924.5 3494.65 324.168 78716.9 88268.5 1884.12 20722.2 346.076 2670.56 224.835 242.952 64.5947 1057.99 809.212 37.5166 343.779 10.5568 44.7172 294.534 7.18047 546.727 1226 39.5336 446.269 28.6397 403.133 1.95614 0.720372 0.242851 0.195956 0.164397 0.110676 0.093373 0.167211 0.194617 0.0691412 0.061672 0.0527585 0.0362563 0.0354768 0.0102946 0.0023665 0.000450628
threshold=0.6598666900000002 0.20550528500000001 12.500000000000002 1.0000000180025095e-35 22.500000000000004 0.000176974465 0.32811352500000007 0.41182105000000008 2.5000000000000004 0.79118220000000006 13.500000000000002 0.8689931500000001 0.46737588500000005 0.53787940000000012 11.500000000000002 0.65571120000000016 7.5000000000000009 4.5000000000000009 0.68496242000000007 0.63762625000000017 0.060837382000000009 16.500000000000004 0.64785372000000019 0.00042490927500000005 0.26120402000000004 0.00024327878000000004 0.74372953000000008 20.500000000000004 29.500000000000004 0.97826087500000003 0.46737588500000005 17.500000000000004 1.5000000000000002 9.5000000000000018 0.34178434500000004 0.34314574000000003 0.65108697000000004 0.29379509000000004 0.0018204525000000001 10.500000000000002 0.97646732500000011 0.67523310000000014 0.0010362170000000001
decision_type=2 2 2 2 2 2 2 2 2 2 2 2 2 2 2 2 2 2 2 2 2 2 2 2 2 2 2 2 2 2 2 2 2 2 2 2 2 2 2 2 2 2 2
left_child=2 -2 5 4 -4 6 9 8 -5 10 -1 14 -13 -14 16 -16 -9 31 -19 20 21 -7 23 -21 25 -22 29 39 -28 30 -24 -18 33 37 42 -36 -32 -31 41 40 -26 -34 -35
right_child=1 -3 3 7 -6 19 -8 11 -10 -11 -12 12 13 -15 15 -17 17 18 -20 22 24 -23 26 -25 27 -27 28 -29 -30 32 36 -33 38 34 35 -37 -38 -39 -40 -41 -42 -43 -44
leaf_value=0 0 160.29137001354943 -797.19561980490198 -101.25996629648661 0 -89.297904419538725 -205.68118770402521 0.23194633433277329 -0.074004084167607773 -0.091253996305393381 -48.549907621849144 -0.089404005988329024 0 -97.116389679036971 -38.429821773550323 -0.075974575407153036 -0.10138687162106204 -34.467502208321783 -0.068605937893371979 48.658641178600149 -43.814349732942468 0 -0.1003083904639698 -0.075180737680907772 -0.17181251687880569 -0.080745958177921448 -0.25107853076447934 0.10410168711499637 -0.41673624846938701 0.083899762990293766 -0.11018887619714109 -0.18758632526191898 -0.096612200550149047 -0.1239457970165788 0.095266540707632866 -0.081227727398928182 -0.19947830838345557 -0.077279085213521448 -0.09917599292809548 -0.11493043162053374 -0.20946917680520111 -0.12777828554893775 -0.097901495452371312
leaf_weight=0.0020887153952153536 0.0029872488521535115 0.001491405739226348 0.0016338110910004691 0.0019596691109142637 0.0029400757048279047 0.0012354787177198947 0.0043477748435637722 0.73500248313484906 0.022068723022732228 0.067495718314603659 0.0010516037874486153 0.055553017393443913 0.0014780101555821323 0.0010553229513035741 0.0015932787840141618 0.023959876722074114 0.2272895971448462 0.0018921277982951725 0.018103970920492429 0.0010427145617041547 0.0012680477229907476 0.0049596694107094663 20.862626272064034 0.023162233317780972 1.7558876294702128 0.030207369046878343 0.24223137866063282 0.095389258884324479 0.18087126314640045 0.066461851914933923 0.16762762218375776 0.75513571832561865 0.17538795381830308 0.65503676397202037 0.061747254134388696 0.030934709331075505 0.25341206396971167 0.025389033609826583 0.71531322850653367 0.15564389623042574 0.24945677052892423 6.4854870461625991 0.2830627827643184
leaf_count=33 22 33 40 25 24 40 78 19 201 491 24 432 22 24 26 185 849 27 136 19 3 62 151299 180 619 287 57 7 1 31 368 96 1268 883 6 235 38 178 5276 123 4 2906 2073
internal_value=0 72.8376 -0.229531 -1.51702 -376.749 -0.156419 -15.885 -0.382991 -12.0624 -1.48758 -24.1078 -0.222074 -3.47474 -56.534 -0.112713 -3.84344 -0.0553768 -0.266569 -4.834 -0.119654 -0.290321 -27.8132 -0.106677 3.85159 -0.203456 -3.15294 -0.109993 -0.160712 -0.32389 -0.106927 -0.101628 -0.168275 -0.120124 -0.0913277 -0.102967 0.0307821 -0.16546 0.0336099 -0.124426 -0.172675 -0.176848 -0.127047 -0.116732
internal_weight=0 0.00447865 34.4485 1.84967 0.00457389 32.5988 0.0749838 1.84509 0.0240284 0.070636 0.00314032 1.82106 0.0580864 0.00253333 1.76298 0.0255532 1.73742 1.00242 0.0199961 32.5238 2.29405 0.00619515 30.2298 0.0242049 2.28785 0.0314754 30.2056 2.25638 0.423103 29.7825 21.2837 0.982425 8.49882 1.12263 1.03078 0.092682 0.42104 0.0918509 7.37619 2.16099 2.00534 6.66087 0.9381
internal_count=168750 55 168695 2106 64 166589 626 2042 226 548 57 1816 478 46 1338 211 1127 1108 163 165963 1145 102 164818 199 1043 290 164619 753 58 164561 151705 945 12856 3406 3197 241 406 209 9450 746 623 4174 2956
is_linear=0
shrinkage=0.1


Tree=14
num_leaves=27
num_cat=0
split_feature=11 55 3 12 1 8 8 0 0 8 6 16 37 5 31 3 61 16 1 5 5 33 1 5 0 61
split_gain=772.16 10728.5 11511.3 15728.6 365.995 86.9726 3741.08 55516.5 15.1285 304.514 5.17021 24.7642 32.8478 1.09207 0.615205 0.182248 0.147298 0.0775986 0.149807 0.130817 0.0983581 0.0681095 0.0640201 0.0461094 0.0224677 3.16553e-05
threshold=0.42576998500000002 0.27236364000000007 0.20550528500000001 0.64785372000000019 7.5000000000000009 0.64785372000000019 0.62645350000000011 0.00043915599000000005 0.000176974465 0.79118220000000006 12.500000000000002 9.5000000000000018 0.97619048000000019 0.74372953000000008 20.500000000000004 0.45049020000000006 0.97826087500000003 1.5000000000000002 9.5000000000000018 0.55693325500000013 0.55785936500000011 1.5000000000000002 29.500000000000004 0.29379509000000004 0.0018204525000000001 0.27195686000000002
decision_type=2 2 2 2 2 2 2 2 2 2 2 2 2 2 2 2 2 2 2 2 2 2 2 2 2 2
left_child=4 2 -2 -4 -1 6 10 -8 9 -7 14 -12 -13 15 25 16 -10 18 23 -20 -21 -17 -15 -18 -19 -6
right_child=1 -3 3 -5 5 8 7 -9 13 -11 11 12 -14 22 -16 21 17 24 19 20 -22 -23 -24 -25 -26 -27
leaf_value=2.0699564338592338 -0.017334036442928087 0.57291364999710581 0 -323.098771740762 -0.075199915061789219 -32.281673081348572 -456.87085420370113 -0.085783018301248279 -0.10028058719144879 -0.090370796676873255 -0.1680091209003747 -0.096326274782183641 -3.4245615365043145 -0.21750324623894654 0.10251713803581286 -0.11534409206433044 0.080617155458862222 -0.12390639767550821 -0.11549063530875184 0.088189492368924705 -0.090559735068544422 -0.17754229879099689 -0.30841912489651824 -0.075331304796242088 -0.099088977999749001 -0.16455802292028532
leaf_weight=0.74947920927937772 0.0062571755843360884 0.14341036478163005 0.0025380519000578975 0.0027133269177284092 0.023182042839501427 0.0020887153954577678 0.0018447513264345785 0.041167797996614186 19.007294480144605 0.061229943687067329 0.48863168033190474 0.059289045916937178 0.059091655089620665 0.25139864332438833 0.087747696051337587 0.37969377364836265 0.062500738036756376 5.9740948877296942 0.82869055847186246 0.05854042317514542 0.062468790954881545 0.52737810960474629 0.21773569285869598 0.023307926370762289 0.64880649122898137 1.9456894279399648
leaf_count=51 51 125 22 34 267 88 45 384 152400 509 133 50 47 61 11 628 30 4173 2687 17 510 297 1 176 5270 683
internal_value=0 -7.16665 -95.9864 -191.962 -0.111941 -0.165096 -0.706416 -29.6234 -0.112923 -1.64544 -0.228332 -0.484953 -1.77663 -0.109386 -0.152149 -0.106774 -0.105204 -0.117342 -0.0897535 -0.101313 0 -0.152213 -0.261329 0.0321178 -0.121566 -0.163798
internal_weight=0 0.154919 0.0115086 0.00525138 31.5614 30.8119 2.70664 0.0430125 28.1052 0.0633187 2.66363 0.607012 0.118381 28.0419 2.05662 27.5728 26.6657 7.65841 1.03551 0.9497 0.121009 0.907072 0.469134 0.0858087 6.6229 1.96887
internal_count=168750 232 107 56 168518 168467 1620 429 166847 597 1191 230 97 166250 961 166188 165263 12863 3420 3214 527 925 62 206 9443 950
is_linear=0
shrinkage=0.1


Tree=15
num_leaves=28
num_cat=0
split_feature=1 6 33 8 6 14 57 22 8 59 56 0 3 57 7 61 2 16 5 5 5 5 45 30 1 0 3
split_gain=886.381 1624.67 6.18812 296.734 5.69047 72.5558 371.809 29.2247 350.278 0.867897 55.3176 287.256 0.59083 0.522021 0.225545 0.0993014 0.0883424 0.0668151 0.110591 0.120239 0.0844587 0.0799065 0.0423475 0.0204369 0.0159461 0.0109213 0.00224713
threshold=7.5000000000000009 25.500000000000004 13.500000000000002 0.68496242000000007 12.500000000000002 1.0000000180025095e-35 0.63811311000000015 1.0000000180025095e-35 0.57002805000000001 39.500000000000007 40.500000000000007 0.00041188349000000009 0.44590642500000005 0.33421053000000006 12.500000000000002 0.97826087500000003 0.38097362000000007 1.5000000000000002 0.29379509000000004 0.55693325500000013 0.55785936500000011 0.28257275000000004 17.500000000000004 0.36130537000000001 29.500000000000004 0.0018204525000000001 0.69782610000000012
decision_type=2 2 2 2 2 2 2 2 2 2 2 2 2 2 2 2 2 2 2 2 2 2 2 2 2 2 2
left_child=1 -1 4 -4 9 6 -6 8 -7 12 11 -11 15 -14 23 -2 -12 18 21 -20 -21 -17 -9 26 -16 -19 -15
right_child=2 -3 3 -5 5 7 -8 22 -10 10 16 -13 13 14 24 17 -18 25 19 20 -22 -23 -24 -25 -26 -27 -28
leaf_value=15.399642551034276 -0.10027237685909943 0.11035836582773027 -30.611041126753307 -0.095982439515131246 -0.048707326688815042 -38.481303300770037 -45.212490921528712 -0.098547673239000488 -0.080047880090862902 34.36478023003076 -0.099078406491706808 -0.062091122771447439 0.080489937457300348 -0.11315264364981947 -0.19358197701830165 -0.086428918314504707 -0.17462165361271162 -0.12134150567422622 -0.11462613722962339 0.084918234573596513 -0.089223047420594448 0.092919123900726222 -0.16081274852531041 -0.15639536395394191 -0.25267244514247938 -0.098873711143151299 -0.14053085724716505
leaf_weight=0.10362848542496905 16.506168851276669 0.20725497603416443 0.0022578358272533064 0.1479355642095474 0.010695089639390785 0.0015898066470034803 0.001203379920156092 0.19334656392905381 0.02905537479819131 0.0018899061105926976 0.64229825154729991 0.014823103327216813 0.089949432362423809 0.35839299158885018 0.25533205473671877 0.043171923207408813 0.2459283322095871 5.4773381296022476 0.72292518204994838 0.054729768220568131 0.05461206614927544 0.054088554548798129 0.71883432312461082 1.43977448972277 0.23809258640252468 0.52649745657254321 0.6173358723895902
leaf_count=63 145767 11 34 1356 150 41 35 1424 286 18 5813 135 150 795 59 359 2 3771 2353 18 488 6 133 706 2 4721 54
internal_value=0 5.24146 -0.118732 -0.757447 -0.115298 -0.355401 -7.80635 -0.252669 -3.24109 -0.106884 -0.00996478 5.52298 -0.110181 -0.152375 -0.159772 -0.104756 -0.12073 -0.115341 -0.0880244 -0.0998601 0 0.0081523 -0.148285 -0.146448 -0.22356 -0.119471 -0.131113
internal_weight=0 0.310883 28.4483 0.150193 28.2981 0.954725 0.0118985 0.942826 0.0306452 27.3433 0.90494 0.016713 26.4384 2.99888 2.90893 23.4395 0.888227 6.93336 0.929527 0.832267 0.109342 0.0972605 0.912181 2.4155 0.493425 6.00384 0.975729
internal_count=168750 74 168676 1390 167286 2069 185 1884 327 165217 5968 153 159249 1766 1616 157483 5815 11716 3224 2859 506 365 1557 1555 61 8492 849
is_linear=0
shrinkage=0.1


Tree=16
num_leaves=24
num_cat=0
split_feature=11 37 1 59 56 0 1 6 17 60 19 2 2 1 3 57 2 12 45 0 8 0 0
split_gain=843.944 901.813 687.093 299.582 16466.2 102264 9.96041 3.4359 325.793 1194.29 1.20209 0.401043 0.332153 0.138633 0.105786 0.0592631 0.0551123 0.0503554 0.0151416 0.0137202 0.0135368 0.00633679 0.158877
threshold=0.6598666900000002 0.37171052500000007 3.5000000000000004 39.500000000000007 40.500000000000007 0.00055497708000000012 7.5000000000000009 13.500000000000002 1.0000000180025095e-35 0.65039685000000014 0.97619048000000019 0.36283569500000007 0.34982942000000006 28.500000000000004 0.46737588500000005 0.67523310000000014 0.38097362000000007 0.48714570000000007 17.500000000000004 0.0018204525000000001 0.60990335000000007 0.00043915599000000005 0.00045252513500000007
decision_type=2 2 2 2 2 2 2 2 2 2 2 2 2 2 2 2 2 2 2 2 2 2 2
left_child=2 -2 10 6 5 -5 -4 11 9 -9 -1 12 14 20 15 -8 -6 19 -10 -17 -13 -19 -23
right_child=1 -3 3 4 16 -7 7 8 18 -11 -12 13 -14 -15 -16 17 -18 21 -20 -21 -22 22 -24
leaf_value=6.3477870929047917 0 87.346328179253632 0.37235718369763021 -744.36698214288697 -0.09900197847098291 -0.057461210708574066 -0.099974184392832413 76.209654548333617 -0.097302739248779066 -0.042858495136511209 5.3074122858585477 -0.14278503090074998 0.10088621630000627 -0.19964917607314722 -0.14415415197832593 -0.11814636342497245 -0.16219516757341132 -0.11367760890606141 -0.15200944190729648 -0.099321555431614736 -0.11184585295152911 0.079567168861801582 -0.093879740996990063
leaf_weight=0.095119342207908769 0.002440014730381245 0.0012825427256757393 0.44903087615967763 0.0011489600511105378 0.59419278948020671 0.013101572596497135 14.156513422666658 0.0016157469056389271 0.12388913715844896 0.0094985400064615533 0.095119369496503764 1.2451675151957844 0.075024988901985945 0.49499534212867247 0.75768473529169256 5.4366379133896272 0.23872698843479156 0.18459123010870815 0.68368436719902093 0.87043573082337378 0.39780712501168713 0.053156656267674407 0.71077819626589189
leaf_count=22 18 37 6 30 5950 127 140942 29 932 109 24 178 21 14 1093 6193 3 392 93 8654 98 41 3744
internal_value=0 42.1652 -0.111786 -0.154904 -2.004 -104.975 -0.0937376 -0.102077 0.099019 16.377 5.86069 -0.108853 -0.104792 -0.150803 -0.105515 -0.104118 -0.117886 -0.112119 -0.144366 -0.115644 -0.135671 -0.0880545 -0.0810689
internal_weight=0 0.00372256 26.6879 26.4977 0.84717 0.0142505 25.6505 25.2015 0.818688 0.0111143 0.190239 24.3828 22.2448 2.13797 22.1698 21.4121 0.83292 7.2556 0.807574 6.30707 1.64297 0.948526 0.763935
internal_count=168750 55 168695 168649 6110 157 162539 162533 1163 138 46 161370 161080 290 161059 159966 5953 19024 1025 14847 276 4177 3785
is_linear=0
shrinkage=0.1


Tree=17
num_leaves=25
num_cat=0
split_feature=0 5 10 9 11 6 17 60 19 1 59 56 19 2 2 1 3 61 19 2 0 9 45 0
split_gain=1640.31 25452.5 704.474 1194.82 478.183 332.663 26466.6 96541.7 422.807 9.36299 1.0845 74.9416 340.76 0.278839 0.299641 0.0731879 0.0728603 0.042573 0.0358115 0.0331564 0.00998058 0.00721825 0.00669864 0.00652269
threshold=0.000176974465 0.60246277500000012 0.44058823500000005 0.20550528500000001 0.5727743500000001 13.500000000000002 1.0000000180025095e-35 0.72524510000000009 1.0000000180025095e-35 7.5000000000000009 39.500000000000007 40.500000000000007 0.043961353000000002 0.36283569500000007 0.34982942000000006 28.500000000000004 0.46737588500000005 0.97826087500000003 0.50581395000000018 0.38097362000000007 0.00043915599000000005 0.7387914000000001 17.500000000000004 0.00045252513500000007
decision_type=2 2 2 2 2 2 2 2 2 2 2 2 2 2 2 2 2 2 2 2 2 2 2 2
left_child=1 2 -1 -4 5 9 7 -7 -8 -2 13 12 -12 14 16 21 17 -11 -19 -13 -20 -15 -10 -22
right_child=4 -3 3 -5 -6 6 8 -9 22 10 11 19 -14 15 -16 -17 -18 18 20 -21 23 -23 -24 -25
leaf_value=-0.09233146923589923 0.39165158544029072 300.21085630691454 0 97.806678741557505 -5.5563741506747428 -725.95292884728497 42.404184957383819 -0.036390144378102472 -0.096685147040926622 -0.099964265974344074 41.735121091172118 -0.098882814650506023 -0.048672241246678544 -0.11032683700007057 0.099343163297693646 -0.18170574954591356 -0.13857865934097643 -0.11557651856261408 -0.11436626295984174 -0.1523953806466517 -0.057433494367611727 -0.13903116537423574 -0.14452593535444275 -0.090678149160357324
leaf_weight=0.067257840190013587 0.38699850440025585 0.0019960942742385792 0.0032076542265714702 0.0010386759386165098 0.16455079771549108 0.0013412153530569801 0.0013432983359961117 0.0084311946557136253 0.11403442863996838 13.385044732671494 0.001380774425343235 0.53172508483481296 0.010687540587241529 0.36409969116797758 0.068901284760157888 0.48978690919659063 0.71176166197131863 4.8870085956862592 0.29977531190525053 0.22921863198280334 0.17889158035904984 1.0129386674706871 0.64937868509878172 0.65751268777785354
leaf_count=509 8 85 36 43 62 45 36 102 931 147560 23 5864 130 152 21 14 1086 7565 424 2 35 116 103 3798
internal_value=0 14.6608 2.65189 37.9456 -0.200297 -0.163309 -2.2007 -157.853 -0.0075129 -0.0952233 -0.103516 0.0123143 7.52148 -0.107598 -0.104079 -0.145318 -0.104805 -0.103534 -0.111365 -0.115837 -0.0927233 -0.13189 -0.13817 -0.0842419
internal_weight=0 0.0735003 0.0715042 0.00424633 24.1548 23.9903 0.774529 0.00977241 0.764756 23.2157 22.8287 0.773012 0.0120683 22.0557 20.1889 1.86683 20.12 19.4082 6.02319 0.760944 1.13618 1.37704 0.763413 0.836404
internal_count=168750 673 588 79 168077 168015 1217 147 1070 166798 166790 6019 153 160771 160489 282 160468 159382 11822 5866 4257 268 1034 3833
is_linear=0
shrinkage=0.1


Tree=18
num_leaves=36
num_cat=0
split_feature=11 4 0 5 21 10 9 59 56 19 18 15 4 6 1 1 6 9 6 26 55 1 2 2 3 1 2 13 1 57 61 1 1 9 45
split_gain=16524.7 20628.9 16373.6 136599 146552 27329.4 26647.5 190.587 12354.8 63561.8 391.754 53.2925 558.425 8459.01 8763.74 93.7046 10360.1 11694.4 44.7987 3047.06 14275.3 7.92334 0.199428 0.268834 0.0524353 0.0405624 0.0189311 0.0108369 0.0494604 0.0992977 0.0368411 0.018119 0.0738159 0.00102036 0.000473011
threshold=0.52279533500000019 16.500000000000004 0.000176974465 0.56133808000000018 0.17712419000000004 0.44058823500000005 0.16515151500000003 39.500000000000007 40.500000000000007 0.050423728000000008 0.050423728000000008 1.0000000180025095e-35 34.500000000000007 10.500000000000002 21.500000000000004 22.500000000000004 9.5000000000000018 0.41565040000000003 13.500000000000002 0.10555555500000001 0.36867654500000008 7.5000000000000009 0.36283569500000007 0.34982942000000006 0.46737588500000005 28.500000000000004 0.38097362000000007 1.0000000180025095e-35 9.5000000000000018 0.98095238000000007 0.97826087500000003 28.500000000000004 29.500000000000004 0.7387914000000001 17.500000000000004
decision_type=2 2 2 2 2 2 2 2 2 2 2 2 2 2 2 2 2 2 2 2 2 2 2 2 2 2 2 2 2 2 2 2 2 2 2
left_child=2 -2 3 5 -5 -1 -7 11 9 -9 -11 12 15 -14 -15 21 -17 -18 22 20 -20 -4 23 24 27 33 -10 28 29 -13 -29 -30 -33 -24 -21
right_child=1 -3 7 4 -6 6 -8 8 26 10 -12 18 13 14 -16 16 17 -19 19 34 -22 -23 25 -25 -26 -27 -28 30 31 -31 -32 32 -34 -35 -36
leaf_value=-0.091171686489044945 0 -413.70748107380524 0.44107650637292584 144.60341434958826 -1173.9940168940759 0 -508.32114375388659 -585.17340041039779 -0.098773560148362916 48.966678458576766 -0.034812733739061734 -0.094137429240828893 -0.089462987093797852 0 -297.4460077687994 -0.10280715704936488 0 -316.93820970645203 -0.043159090311936786 -0.095786873674379241 289.56257250049168 -0.10928218769586295 -0.10893934885105844 0.097832798321295988 -0.13382493823498195 -0.16813238659983049 -0.14447972288138597 -0.099946523528937625 -0.10228903882855556 0.068130153259015128 -0.11339796635192555 -0.0080435922214098475 -0.10799944527140318 -0.1339045574366565 -0.13842519470876344
leaf_weight=0.059719692599199146 0.0027070201954008102 0.0011745255007440392 0.31244698166846907 0.001070441752163858 0.0011291530358339462 0.0019724887097254378 0.0011630736626104055 0.0012209179404777401 0.48495426506466943 0.0010298906199750499 0.0082030793928424828 0.10119834390208859 0.055898782673466374 0.0019500943817547514 0.0010158333825742716 0.46325604294924683 0.0024667013085490899 0.0012074358092204474 0.0095542444355486388 0.098276307315400935 0.0010699947015382393 1.5779357552050255 0.33329168686134092 0.06327302215186037 0.66521384118115001 0.47709591783958871 0.21821844577789307 9.7241037601101663 1.6615610236846232 0.055621857150981668 3.6763443170088044 0.13304095281637263 0.2057751377360546 0.94983316019978825 0.61182510541402735
leaf_count=471 61 51 3 46 78 21 35 36 5913 17 104 1215 685 36 19 4244 32 29 131 851 53 7762 140 21 1041 13 3 118478 17165 74 7838 924 953 114 93
internal_value=0 -184.345 -0.336572 -50.0492 -687.5 -17.3168 -265.921 -0.186576 -1.79285 -104.816 9.63324 -0.132358 -0.574339 -10.1126 -151.237 -0.331759 -1.59873 -149.732 -0.0754004 0.697076 51.4819 -0.0178681 -0.106316 -0.102725 -0.103544 -0.139177 -0.113853 -0.102209 -0.0927786 -0.0333483 -0.103682 -0.0971689 -0.0703609 -0.127899 -0.13337
internal_weight=0 0.00388155 21.9619 0.0650548 0.00219959 0.0628553 0.00313556 21.8969 0.713627 0.0104539 0.00923297 21.1833 2.41618 0.0588647 0.00296593 2.35731 0.46693 0.00367414 18.7671 0.720726 0.0106242 1.89038 18.0464 16.2861 16.2229 1.76022 0.703173 15.5576 2.1572 0.15682 13.4004 2.00038 0.338816 1.28312 0.710101
internal_count=168750 112 168638 651 124 527 56 167987 6073 157 121 161914 12810 740 55 12070 4305 61 149104 1128 184 7765 147976 147709 147688 267 5916 146647 20331 1289 126316 19042 1877 254 944
is_linear=0
shrinkage=0.1


Tree=19
num_leaves=24
num_cat=0
split_feature=1 0 5 6 20 58 5 26 55 14 59 56 18 10 1 2 2 3 1 0 0 1 2
split_gain=5107.93 4951.25 97057.1 540.531 16832.3 2538.07 15139.8 610.323 2347.67 1498.72 96.0767 7061.99 26589.3 346.148 0.550685 0.135617 0.244408 0.0329258 0.0211355 0.0140024 0.0223632 0.132139 0.00932698
threshold=5.5000000000000009 0.000176974465 0.53889550000000008 13.500000000000002 0.97248432000000007 2.5000000000000004 0.66671843000000008 0.80860805000000013 0.37310734000000007 0.62039255000000015 39.500000000000007 40.500000000000007 0.11035007500000001 0.47434211000000004 7.5000000000000009 0.36283569500000007 0.34982942000000006 0.46737588500000005 28.500000000000004 0.00043915599000000005 0.00045252513500000007 9.5000000000000018 0.38097362000000007
decision_type=2 2 2 2 2 2 2 2 2 2 2 2 2 2 2 2 2 2 2 2 2 2 2
left_child=-1 2 -2 10 5 6 -5 8 -7 -10 14 12 -12 -14 -3 16 17 19 -17 -16 21 -21 -13
right_child=1 3 -4 4 -6 7 -8 -9 9 -11 11 22 13 -15 15 18 -18 -19 -20 20 -22 -23 -24
leaf_value=20.626109320945009 -0.090199267663581287 0.11020106577009646 -600.73747310465899 -0.054387919446407175 -75.933045378229039 -0.051267961083970061 294.66343068006432 -0.12989712609931439 0 -149.4705389316394 -373.89918208273031 -0.098635643184059429 -0.0068631565643238954 47.905472205080827 -0.11098211035434682 -0.1244610616317427 0.09634018223498747 -0.12965042168862873 -0.15752339545013541 0.073174344828930732 -0.10115114649442003 -0.10732774020863321 -0.13796018824932557
leaf_weight=0.11598239094019192 0.054758445812719825 0.11598239094019547 0.001829327324247342 0.012152264143406866 0.029256608750220181 0.011310411691511035 0.001034173612424639 0.64421587198573438 0.0010103004678967418 0.0010044113780622865 0.001406104816851661 0.43637541058566021 0.0054416037964983843 0.0010747632732091006 2.8260331981046685 1.1927535553801316 0.058108819442621917 0.62080854583770673 0.45927508257558702 0.05046809660780005 13.023123349011925 0.15627907710768363 0.20633645355701447
leaf_count=69 477 2 136 207 96 172 46 621 32 42 43 5869 96 15 8737 269 21 1086 14 72 150061 565 2
internal_value=0 -0.331101 -29.6107 -0.246134 -2.97359 0.316404 42.1657 -0.584845 -21.0004 -99.413 -0.14628 -1.33977 -89.694 13.1511 -0.104215 -0.105601 -0.102755 -0.103485 -0.134045 -0.102434 -0.100562 -0.0607193 -0.112232
internal_weight=0 19.91 0.0565878 19.8535 0.699984 0.670727 0.0131864 0.657541 0.0133251 0.00201471 19.1535 0.650634 0.00792247 0.00651637 18.5028 18.3868 16.7348 16.6767 1.65203 16.0559 13.2299 0.206747 0.642712
internal_count=168750 168681 613 168068 1216 1120 253 867 246 74 166852 6025 154 111 160827 160825 160542 160521 283 159435 150698 637 5871
is_linear=0
shrinkage=0.1


Tree=20
num_leaves=29
num_cat=0
split_feature=0 10 6 27 24 58 5 62 3 6 55 59 56 10 0 1 2 2 3 12 1 0 1 1 0 61 1 2
split_gain=10459.9 141846 3101.47 45729.2 109455 28369.7 161570 26807.1 21011.4 2895.78 1236.96 197.687 18667.2 50326.6 292.809 0.494948 0.0957568 0.221038 0.0210153 0.0166819 0.0411464 0.0654348 0.0317307 0.0815922 0.0252832 0.0229625 0.0089012 0.0028812
threshold=0.000176974465 0.44058823500000005 13.500000000000002 0.47597254500000002 5.5000000000000009 3.5000000000000004 0.65707678000000003 0.56980520000000012 0.40862709000000003 6.5000000000000009 0.31851120000000005 39.500000000000007 40.500000000000007 0.37089947000000006 0.0011812491500000002 7.5000000000000009 0.36283569500000007 0.34982942000000006 0.46737588500000005 0.97058825000000015 9.5000000000000018 0.00045252513500000007 28.500000000000004 29.500000000000004 0.00043915599000000005 0.97826087500000003 28.500000000000004 0.38097362000000007
decision_type=2 2 2 2 2 2 2 2 2 2 2 2 2 2 2 2 2 2 2 2 2 2 2 2 2 2 2 2
left_child=1 9 11 5 7 6 -4 8 10 -1 -5 15 13 14 -13 -2 17 18 19 25 21 24 -22 -24 -21 -17 -18 -14
right_child=2 -3 3 4 -6 -7 -8 -9 -10 -11 -12 12 27 -15 -16 16 26 -19 -20 20 22 -23 23 -25 -26 -27 -28 -29
leaf_value=-0.088329831858656144 0.10815685921067333 760.09717370901672 -0.056635263325150356 -0.01389550603378845 -781.26992385640006 -0.12632479319925707 -908.31541752685848 294.08926553932264 -390.86330754480014 102.60735515935306 -86.206568727474206 48.020897229637669 -0.098493115256186231 -575.4946207677815 0 -0.099937888611573863 -0.12164356195601228 0.094851967565370288 -0.12605710584947813 -0.055416896755439954 -0.10180942495778565 -0.092291417590249933 0 -0.10558033558597163 0.085744688104365599 -0.11106192999529106 -0.14902121654760619 -0.13250195108688476
leaf_weight=0.046570761480345335 0.10684525983684068 0.0016303701922879546 0.012833990143236699 0.0059677398894564292 0.0015594900050928126 0.59714403143404315 0.0013115623217922123 0.0010381436777608501 0.001045739691128352 0.001917025620059575 0.0013157351713743992 0.0010697866455295904 0.39539343974221419 0.0010844824864761904 0.0032501225723535754 8.7160432065067379 1.1029760733272473 0.053377370511044187 0.57694030133928897 0.012455868256439406 1.3660930686765831 0.076762358588894131 0.1308236748300261 0.17305895056233567 0.043681688952347031 4.0778909914605821 0.43807351659410509 0.19402788579463959
leaf_count=460 8 143 226 94 121 602 53 49 43 70 31 46 5869 42 66 130062 269 21 1086 176 17168 1097 924 953 15 9040 14 2
internal_value=0 44.8851 -0.413927 -7.34586 -201.276 -3.55546 -138.715 -38.6248 -107.226 5.95311 -24.172 -0.1666 -1.95682 -171.763 18.6221 -0.103355 -0.104739 -0.102157 -0.102889 -0.10193 -0.090244 -0.0305546 -0.0946738 -0.0607273 0.0452511 -0.103531 -0.129842 -0.110741
internal_weight=0 0.0501182 18.0921 0.622216 0.0109268 0.61129 0.0141456 0.00936736 0.00832921 0.0484878 0.00728348 17.4698 0.594826 0.00540439 0.00431991 16.875 16.7682 15.2271 15.1738 14.5968 1.80288 0.1329 1.66998 0.303883 0.0561376 12.7939 1.54105 0.589421
internal_count=168750 673 168077 1219 338 881 279 217 168 530 125 166858 6025 154 112 160833 160825 160542 160521 159435 20333 1288 19045 1877 191 139102 283 5871
is_linear=0
shrinkage=0.1


Tree=21
num_leaves=30
num_cat=0
split_feature=0 10 4 5 6 26 62 61 3 62 55 6 10 54 59 56 31 1 2 2 3 17 3 3 1 0 0 1 0
split_gain=79477.6 526546 70608 133438 872.561 31549.1 115015 927.088 1018.97 609.635 372.727 343.635 191.814 1786.48 178.767 23314.9 32419.9 0.445448 0.0671904 0.200171 0.0123456 0.0167599 0.0913768 0.125878 0.0515032 0.0566052 0.0220557 0.00129428 0.00102984
threshold=0.000176974465 0.39811320000000006 21.500000000000004 0.43886554000000005 13.500000000000002 0.80860805000000013 0.49576270000000006 0.069971442500000022 0.35355393000000007 0.056079665000000008 0.32926285000000005 6.5000000000000009 0.41763565000000008 0.14150700500000005 39.500000000000007 40.500000000000007 3.5000000000000004 7.5000000000000009 0.36283569500000007 0.34394890000000006 0.46737588500000005 1.0000000180025095e-35 0.34178434500000004 0.34314574000000003 9.5000000000000018 0.00045252513500000007 0.00043915599000000005 28.500000000000004 0.0018204525000000001
decision_type=2 2 2 2 2 2 2 2 2 2 2 2 2 2 2 2 2 2 2 2 2 2 2 2 2 2 2 2 2
left_child=1 2 11 -4 14 6 9 8 -7 -6 -11 -1 13 -9 17 16 -16 -2 19 20 21 22 24 -24 25 26 -19 -20 -23
right_child=4 -3 3 -5 5 7 -8 12 -10 10 -12 -13 -14 -15 15 -17 -18 18 27 -21 -22 28 23 -25 -26 -27 -28 -29 -30
leaf_value=-0.085037761607912751 0.10626346896363476 -1486.2169080927961 0 -940.22781795481797 49.664609586249874 0 -776.49269680900727 -0.068241700947010195 -98.809640866365001 -0.021460720697126987 -49.064570836057527 -21.805670174800834 -0.12373726497060607 -99.71800806539359 32.278082521087235 -0.10941238048557311 -505.81118212769309 -0.051304736720526926 -0.11917041340390647 0.093356171584334957 -0.1229185836192867 -0.1064416877492575 0.088363618593008855 -0.09314784566421716 -0.10236798554917768 -0.090909719247363546 0.084093939257478462 -0.14207091217999815 -0.09990410888337814
leaf_weight=0.03658303284465958 0.098329231295926856 0.0016910449194256208 0.0039447034105251069 0.00144583764631534 0.0010014221552409955 0.0021683346312784115 0.0014464423957352363 0.017889203430968226 0.0010200661786647913 0.0066388885206833947 0.0010300393732904922 0.0081114908680319786 0.5394517971435504 0.0010016461835391502 0.0020761544074046059 0.53994085223759136 0.0011739681649487466 0.011319831417494819 1.0176775732008145 0.04904800710414825 0.53470140439784586 5.7307039953023482 0.065601784051978085 0.086484720781219215 1.3812837981812274 0.064956483143760124 0.040436482027871534 0.41479992927003539 5.8833043907521985
leaf_count=349 8 177 60 73 33 40 127 358 37 194 63 14 339 28 71 5871 83 167 269 35 1080 42061 52 1426 17659 1015 13 14 97034
internal_value=0 -123.217 -48.9951 -359.913 -0.303651 -4.13883 -170.959 -0.833878 -47.7077 -0.0379611 -11.5662 -4.42894 -0.480498 -10.1247 -0.165672 -1.94695 -235.246 -0.1026 -0.103984 -0.101636 -0.102372 -0.101497 -0.0892802 -0.0115218 -0.0968282 -0.0267056 0.0445917 -0.126245 -0.103182
internal_weight=0 0.0517761 0.0500851 0.00539054 16.4935 0.571648 0.0101168 0.561531 0.0031884 0.00867035 0.00766893 0.0446945 0.558343 0.0188908 15.9218 0.543191 0.00325012 15.3786 15.2803 13.8478 13.7988 13.2641 1.65008 0.152087 1.498 0.116713 0.0517563 1.43248 11.614
internal_count=168750 673 496 133 168077 1219 417 802 77 290 257 363 725 386 166858 6025 154 160833 160825 160542 160507 159427 20332 1478 18854 1195 180 283 139095
is_linear=0
shrinkage=0.1


Tree=22
num_leaves=24
num_cat=0
split_feature=0 1 59 56 59 57 60 6 1 6 57 9 57 4 6 62 39 39 59 34 2 3 12
split_gain=40331.9 752392 1014.49 57773.5 76262.4 73433.7 420.641 357.282 197.294 327.741 38554.6 778.769 3672.69 21.7059 902.026 7029.29 38.1037 21.6353 53.5993 0.0535776 0.119979 0.0470557 0.0150256
threshold=0.000176974465 7.5000000000000009 39.500000000000007 41.500000000000007 40.500000000000007 0.51652545000000016 0.64760347000000007 13.500000000000002 7.5000000000000009 14.500000000000002 1.0000000180025095e-35 0.43019481500000006 0.64167882500000017 1.0000000180025095e-35 13.500000000000002 0.053101505000000007 2.5000000000000004 1.0000000180025095e-35 2.5000000000000004 20.500000000000004 0.34982942000000006 0.44590642500000005 0.97058825000000015
decision_type=2 2 2 2 2 2 2 2 2 2 2 2 2 2 2 2 2 2 2 2 2 2 2
left_child=1 -1 8 4 5 -4 -3 -5 -2 13 -11 12 -12 16 19 -16 -10 18 -13 21 -21 22 -15
right_child=2 6 3 7 -6 -7 -8 -9 9 10 11 17 -14 14 15 -17 -18 -19 -20 20 -22 -23 -24
leaf_value=1933.2590373212197 4.4798695899992342 -44.995737866533965 0 -0.10865535871553447 0 -948.26679060819333 -0.084804841541577858 -36.26850838758795 1.379662476073235 -432.38682219481439 -0.042113936594069507 7.6983254208476799 -149.09244364850312 -0.10291206034600833 -198.71636792475459 -0.063960905729858977 -0.12219972274729377 -0.12129677064165539 -0.082054152502041733 -0.095100436328207846 0.091842051957090734 -0.12446767750547226 -0.088734148172711844
leaf_weight=0.0011205705174143895 0.090420656043708969 0.001214018793689319 0.0012607821299746016 0.48512302012033082 0.0046402763400692493 0.0013196340863188549 0.036386879560759963 0.0017482474431744768 0.26569894130038563 0.0010805630918186418 0.0093642429517331038 0.011770187806998844 0.0010094979261339185 10.502788467636718 0.0010109118447879538 0.01564601519316967 0.45900955996548276 0.3108059688419833 0.028404527590282669 0.11764654706621591 0.045091045154549647 1.1861837901265087 1.484927030052513
leaf_count=61 12 54 24 5740 84 180 558 50 27 56 261 30 42 136963 33 475 43 179 72 1976 5 1774 20051
internal_value=0 100.596 -0.302563 -4.7541 -267.644 -614.386 -2.6759 -0.313596 -0.150846 -0.180185 -3.14518 -0.67051 -26.4238 -0.103598 -0.132564 -22.72 0.428879 0.162154 2.31687 -0.102615 -0.0400045 -0.103347 -0.101205
internal_weight=0 0.0387215 15.0249 0.494092 0.00722069 0.00258042 0.0376009 0.486871 14.5309 14.4404 0.362435 0.361354 0.0103737 14.078 13.3533 0.0166569 0.724709 0.350981 0.0401747 13.3366 0.162738 13.1739 11.9877
internal_count=168750 673 168077 6078 288 204 612 5790 161999 161987 640 584 303 161347 161277 508 70 281 102 160769 1981 158788 157014
is_linear=0
shrinkage=0.1


Tree=23
num_leaves=25
num_cat=0
split_feature=1 2 59 0 33 6 27 6 0 16 59 57 5 2 34 3 15 12 3 3 0 0 3 3
split_gain=244.224 29891.6 33.4107 31.8781 433.105 17.1256 207.635 54.4174 2716.53 1712.49 2.09416 177.991 313.424 0.210459 0.0474439 0.107437 0.0339252 0.0151895 0.0134862 0.210479 0.0208394 0.105457 0.00360567 0.00305849
threshold=8.5000000000000018 0.21875709000000002 87.500000000000014 0.000176974465 10.500000000000002 14.500000000000002 0.47597254500000002 13.500000000000002 0.0010152908000000003 5.5000000000000009 39.500000000000007 0.67443020000000009 0.53175139500000013 0.44858277000000008 20.500000000000004 0.57417585000000015 14.500000000000002 0.97058825000000015 0.34178434500000004 0.34314574000000003 0.00045252513500000007 0.00043915599000000005 0.52730885000000016 0.44590642500000005
decision_type=2 2 2 2 2 2 2 2 2 2 2 2 2 2 2 2 2 2 2 2 2 2 2 2
left_child=1 22 3 4 -2 7 -7 10 9 -9 13 -12 -13 14 17 -16 -15 23 20 -20 21 -19 -1 -5
right_child=2 -3 -4 5 -6 6 -8 8 -10 -11 11 12 -14 16 15 -17 -18 18 19 -21 -22 -23 -24 -25
leaf_value=-0.10048838660779336 -0.080799204111234563 376.81878869953408 -3.6623870595468802 -0.10263582633956232 -46.884402531137965 -0.11509959712499206 -7.7643634222265012 149.57419582367743 -0.11551559411585995 0 -0.10786232514196802 0 49.446920426104505 -0.12719962589123146 -0.094491395074978751 0.090300017273011998 -0.17303391266347667 -0.10210326528630471 0.088549476527478632 -0.11144175791117028 -0.10121070772519697 0.070860325738022173 0 -0.11718989907624247
leaf_weight=0.2551432712860387 0.028843782551619346 0.0011214118585437518 0.025465198126767841 9.3048560573697277 0.0011246398574635821 0.5152729249048279 0.037126269893634101 0.0010016809974339143 0.15605181196883677 0.0012367125860919287 0.43769954722016891 0.003499158068734686 0.0010102156447828747 0.48456867905140022 0.10511128477219323 0.04147805289221651 0.48924272611839115 0.13069361999756268 0.065559051996388062 0.21938785571417402 1.0508790828577046 0.043850888538145227 0.0014516696830594858 0.73835188061622403
leaf_count=3642 468 95 5 134003 42 472 175 46 420 71 5685 159 54 135 1940 2 3 914 51 1541 17297 75 13 1442
internal_value=0 2.98882 -0.112075 -0.105251 -3.31059 -0.0980283 -0.643205 -0.0752571 1.76178 92.415 -0.0975978 0.115589 17.9783 -0.105084 -0.101216 -0.0385586 -0.150894 -0.101964 -0.0895851 -0.0635315 -0.0951789 -0.0556451 -0.0995039 -0.103767
internal_weight=0 0.257716 13.8823 13.8568 0.0299684 13.8269 0.552399 13.2745 0.15829 0.00223839 13.1162 0.442209 0.00450937 12.674 11.7002 0.146589 0.973811 11.5536 1.51037 0.284947 1.22542 0.174545 0.256595 10.0432
internal_count=168750 3750 165000 164995 510 164485 647 163838 537 117 163301 5898 213 157403 157265 1942 138 155323 19878 1592 18286 989 3655 135445
is_linear=0
shrinkage=0.1


Tree=24
num_leaves=36
num_cat=0
split_feature=1 3 59 12 6 10 57 1 22 60 59 57 5 15 6 9 0 27 3 0 18 3 55 59 5 2 6 34 3 15 12 3 3 3 3
split_gain=1567.95 21373.6 31465.5 5727.89 1549.85 2923.07 2890.15 810.655 601.864 1370.61 509.954 80493.7 97904.8 370.645 299.647 11437.6 34575.8 3857.3 182.22 1148.47 143.698 127.026 361.27 58.6565 437.281 0.144716 0.0970293 0.0428388 0.0969518 0.0158819 0.0138342 0.0129315 0.187883 0.0163131 0.0906116
threshold=8.5000000000000018 0.38529015000000005 4.5000000000000009 0.19917355000000003 7.5000000000000009 0.55086207000000009 0.36920848000000001 7.5000000000000009 28.500000000000004 0.93700397000000013 40.500000000000007 0.67443020000000009 0.48762831000000001 22.500000000000004 13.500000000000002 0.44058823500000005 0.00095671643500000014 0.45804196500000005 0.42947559000000007 0.00085228023000000013 0.98076921500000014 0.32811352500000007 0.36451048500000005 39.500000000000007 0.58700008000000015 0.44858277000000008 13.500000000000002 20.500000000000004 0.57417585000000015 14.500000000000002 0.97058825000000015 0.34178434500000004 0.34314574000000003 0.087595910000000013 0.086335405000000018
decision_type=2 2 2 2 2 2 2 2 2 2 2 2 2 2 2 2 2 2 2 2 2 2 2 2 2 2 2 2 2 2 2 2 2 2 2
left_child=1 4 -3 7 21 6 -6 -4 10 -10 13 26 -13 14 23 16 -16 -18 19 -17 -20 -1 -23 25 -25 27 -12 30 -29 -27 -2 33 -33 34 -32
right_child=8 2 3 -5 5 -7 -8 -9 9 -11 11 12 -14 -15 15 18 17 -19 20 -21 -22 22 -24 24 -26 29 -28 28 -30 -31 31 32 -34 -35 -36
leaf_value=-0.10001335698143998 -0.10341264743006584 -488.39841441011816 88.189985725538335 -135.82878045372291 -112.15370902442676 -140.99355760845856 -0.065945702749521343 0 0 -99.563082098569723 -0.10728042066894841 0 -942.39857967469163 -37.621197818346516 -416.06662621248392 -32.666354979469325 -0.057170768216900592 -148.86771094951877 -0.11631873967353681 -0.10362244617538544 4.2567717916379033 -0.0075678024975977714 -49.708352747688735 -0.062302615286199084 49.692919487474136 -0.1238288579696195 -0.19362092330373437 -0.093949245390195335 0.088721549305213379 -0.16119037509510906 -0.096589875979320131 0.085735860844746367 -0.10986170994360474 -0.10188243432170352 0.056059840956319953
leaf_weight=0.20107373552264096 9.1352112377268533 0.001251492064966454 0.001263596235470511 0.0019426331470838798 0.0016719330415071376 0.0011250084826315279 0.01661672301997897 0.0019237935106336871 0.0044848047982676267 0.0010047639807453379 0.38385392034235088 0.0024341248099517534 0.0010157092947338242 0.0016491693531869292 0.0016430005179308644 0.011264566214688188 0.013007675052335806 0.0010125335279702599 0.41914836540691824 0.093002000424677433 0.090487992199541623 0.0054909787540964308 0.0010036949242930859 0.014914460865838471 0.0010002843068276394 0.44979851780662805 0.24991582334041595 0.096039180586900197 0.038182018394081751 0.47353029986879847 0.17470857675653018 0.061200187959911972 0.20116408755341145 0.89484615564622638 0.044772585777536733
leaf_count=2906 135707 98 21 64 44 30 393 47 104 26 5309 45 38 40 122 45 407 113 149 233 66 124 23 492 44 135 47 1972 2 3 3787 51 1541 14352 170
internal_value=0 -8.63268 -176.1 -32.5872 -3.17043 -29.4627 -15.6221 47.6273 -0.378895 -30.8262 -0.363456 -3.11917 -426.947 -0.219433 -0.211263 -2.33421 -84.0814 -20.0331 -0.114338 -3.90323 0.665978 -0.579472 -13.3628 -0.0956639 5.78835 -0.104301 -0.142366 -0.100825 -0.0380153 -0.143684 -0.101576 -0.088956 -0.062185 -0.0947495 -0.0630696
internal_weight=0 0.233364 0.00638151 0.00513002 0.226982 0.0194137 0.0182887 0.00318739 12.8593 0.00548957 12.8538 0.63722 0.00344983 12.2166 12.2149 0.629566 0.0156632 0.0140202 0.613903 0.104267 0.509636 0.207568 0.00649467 11.5854 0.0159147 11.5695 0.63377 10.6461 0.134221 0.923329 10.5119 1.37669 0.262364 1.11433 0.219481
internal_count=168750 3750 230 132 3520 467 437 68 165000 130 164870 5439 83 159431 159391 1135 642 520 493 278 215 3053 147 158256 536 157720 5356 157582 1974 138 155608 19901 1592 18309 3957
is_linear=0
shrinkage=0.1


Tree=25
num_leaves=36
num_cat=0
split_feature=22 58 56 59 5 59 15 59 0 27 1 10 10 60 5 51 3 11 3 2 6 17 0 58 59 6 34 2 12 3 3 10 10 0 3
split_gain=694.209 1276.65 671.596 3403.99 38990.5 177273 307.031 299.635 1692.5 186.109 121.951 6718.58 6814.17 5230.36 1697.16 502 1389.59 481.207 455.446 16.9143 61.4604 2027.6 5703.87 58.632 4.13618 0.0571741 0.0401452 0.0869287 0.015084 0.0122527 0.168003 0.0198852 0.0831481 0.00607169 0.00545865
threshold=28.500000000000004 2.5000000000000004 40.500000000000007 40.500000000000007 0.58700008000000015 38.500000000000007 20.500000000000004 38.500000000000007 0.00036986012000000008 0.57518798500000001 8.5000000000000018 0.65108697000000004 0.56385870000000005 0.81605801000000011 0.63334840000000014 12.500000000000002 0.30860807000000007 0.23589094000000002 0.38327019000000001 0.8691798850000001 13.500000000000002 0.82637679500000016 0.0032063209500000005 11.500000000000002 1.0000000180025095e-35 13.500000000000002 20.500000000000004 0.34982942000000006 0.97058825000000015 0.34178434500000004 0.34314574000000003 0.084039550500000018 0.080540540000000008 0.0056602528500000011 0.44590642500000005
decision_type=2 2 2 2 2 2 2 2 2 2 2 2 2 2 2 2 2 2 2 2 2 2 2 2 2 2 2 2 2 2 2 2 2 2 2
left_child=2 -2 6 4 -4 -6 7 10 -9 -8 11 12 14 -14 15 17 -17 18 -1 20 26 22 -22 -21 -23 -5 28 -28 34 31 -31 32 -30 -25 -12
right_child=1 -3 3 25 5 -7 9 8 -10 -11 19 -13 13 -15 -16 16 -18 -19 -20 23 21 24 -24 33 -26 -27 27 -29 29 30 -32 -33 -34 -35 -36
leaf_value=-0.099464899659968325 -99.433114426889574 0 -0.094850534751724516 -0.10628528024896122 -0.044752819531120168 -958.63109546720068 0 99.612344509503231 -0.051532361836821305 -49.797924380010642 -0.10219970315348935 160.93084150296625 -247.83343440322415 0 -88.284954860724142 -0.0081065042440485787 -95.996791660810928 -47.980599245950117 46.157205105778303 1.7449339885648341 -195.23023482105924 -0.86828558663270694 -0.0089164692811237751 -0.15183270632854476 -0.11027076548231546 -0.17668491013798826 -0.093255078625171045 0.087099201188288289 -0.095564326670167302 0.083007581664013327 -0.1084015620443958 -0.10155595306359787 0.059845761102518005 -0.11529480179052454 -0.11740601784156231
leaf_weight=0.18437273822018235 0.0010073870143977306 0.0036399848686414771 0.11542597742300206 0.35712875435724301 0.0098595646432544648 0.0013988788850596299 0.0012090044583643171 0.0010017581280415975 0.011378459261777607 0.001000083622154133 7.5439654177808277 0.0014815121758147134 0.001015876481687882 0.0014764188090339303 0.0012611567435669704 0.0055290526855458757 0.0010793188303068746 0.0010759975026530802 0.0011531779709912362 0.21398633997480854 0.0010468381296114817 0.10070229324355751 0.0055870908017539023 0.4535219669342041 0.25444525924224592 0.2467135488986969 0.086375938541096597 0.035177453818050708 0.13413863824033057 0.057214900443796124 0.18391891791294973 0.83248971380949188 0.041255579406424658 0.25595413467237538 0.80853153583534343
leaf_count=2983 53 82 2891 5512 256 62 53 43 429 49 131380 100 46 47 60 145 33 37 92 19 147 55 265 30 615 48 1944 5 3193 50 1542 14825 147 37 1475
internal_value=0 -35.4085 -0.338146 -3.27397 -18.1085 -187.677 -0.1467 -0.137797 14.8175 -31.0745 -0.155683 -2.60646 -4.64579 -143.101 -2.14583 -1.1293 -26.308 -0.0994713 0.431289 -0.111226 -0.148774 -1.42686 -52.4191 0.298011 -0.328445 -0.13612 -0.101026 -0.036696 -0.101784 -0.0881945 -0.0607648 -0.0941946 -0.0560427 -0.139536 -0.103745
internal_weight=0 0.00464737 11.9519 0.730527 0.126684 0.0112584 11.2213 11.2191 0.0123802 0.00220909 11.2068 0.198445 0.196964 0.0024923 0.194471 0.19321 0.00660837 0.186602 0.185526 11.0083 10.0848 0.361781 0.00663393 0.923462 0.355148 0.603842 9.72307 0.121553 9.60151 1.24902 0.241134 1.00788 0.175394 0.709476 8.3525
internal_count=168750 135 168615 8769 3209 318 159846 159744 472 102 159272 3543 3443 93 3350 3290 178 3112 3075 155729 155643 1082 412 86 670 5560 154561 1949 152612 19757 1592 18165 3340 67 132855
is_linear=0
shrinkage=0.1


Tree=26
num_leaves=24
num_cat=0
split_feature=1 10 3 3 61 59 0 59 5 17 3 6 19 2 8 61 7 2 34 3 6 22 3
split_gain=25382.2 715924 303883 1300.94 2042.39 1014.32 57142.4 247546 440.343 14.3278 7698.1 0.840708 0.958207 0.14257 0.0549137 0.150248 0.0519987 0.0431753 0.0415188 0.0751071 0.0344249 0.0177109 0.00921394
threshold=8.5000000000000018 0.58898945000000014 0.37590580000000007 0.32811352500000007 0.49576270000000006 38.500000000000007 0.00036986012000000008 40.500000000000007 0.61112040000000012 1.0000000180025095e-35 0.51925925000000006 14.500000000000002 0.067231640000000009 0.44858277000000008 0.89417691500000018 0.97826087500000003 3.5000000000000004 0.9649658000000001 20.500000000000004 0.57417585000000015 13.500000000000002 8.5000000000000018 0.086335405000000018
decision_type=2 2 2 2 2 2 2 2 2 2 2 2 2 2 2 2 2 2 2 2 2 2 2
left_child=1 2 3 8 -5 9 7 -7 -1 10 14 13 -13 18 -2 -16 22 -14 -11 -20 -8 -15 -17
right_child=5 -3 -4 4 -6 6 20 -9 -10 11 -12 12 17 21 15 16 -18 -19 19 -21 -22 -23 -24
leaf_value=-0.098940676882489531 -0.10354292273782338 -1843.8150572953884 -1234.1194991316247 0 -114.53820599216706 -1223.3819460707937 -0.10511853613746068 -0.038085059961358275 -44.974372091161825 -0.10280982987490875 192.91515426615453 -0.42348581475846203 -0.10926871037561679 -0.11888208156480413 -0.097633596880104909 0 -0.078303716398353707 -0.18084231056838393 -0.091830209085645681 0.085426608522849543 -0.16379722480160891 -0.15538521541478043 0.080061591587208936
leaf_weight=0.17266552815646355 0.77773357623109995 0.0011691805916744505 0.0010254137036146962 0.0038611837176662491 0.0016162591737156617 0.0010431920964031434 0.34784528634517753 0.0086902047841611509 0.0012150728798587798 7.5152559742923293 0.0010703037409832685 0.17934948360413017 0.22110703892764505 0.40706553674812784 0.25214415227020481 0.0043988038523821152 0.026649590301531134 0.24800199270248413 0.071360405344763289 0.032440432593602964 0.239925816655159 0.67576847554321329 0.091203254192805616
leaf_count=3149 12508 167 180 127 67 77 6288 261 60 135633 91 106 425 90 6672 103 679 18 1759 2 55 44 189
internal_value=0 -37.896 -16.0872 -2.31679 -46.3219 -0.302481 -4.30675 -232.962 -0.670767 -0.074259 0.258034 -0.115318 -0.225842 -0.106999 -0.0876491 -0.053113 0.0347011 -0.148475 -0.101906 -0.0313754 -0.130158 -0.142246 0.0718622
internal_weight=0 0.181553 0.180383 0.179358 0.00547744 11.1011 0.597504 0.0097334 0.173881 10.5035 1.1532 9.35035 0.648459 8.70189 1.15213 0.374396 0.122252 0.469109 7.61906 0.103801 0.587771 1.08283 0.0956021
internal_count=168750 3750 3583 3403 194 165000 6681 338 3209 158319 20242 138077 549 137528 20151 7643 971 443 137394 1761 6343 134 292
is_linear=0
shrinkage=0.1


Tree=27
num_leaves=29
num_cat=0
split_feature=0 55 1 15 17 3 2 11 18 1 8 3 0 62 60 17 6 19 2 59 8 61 0 34 3 2 7 22
split_gain=44833.4 292054 10152.1 6160.47 2839.59 1.61405e+06 425.014 318.454 175.63 168.018 29805.8 2144.28 2227.28 2.71142 212.926 280.042 0.492454 0.401821 0.0866618 0.0493663 0.047666 0.132242 0.0493279 0.0397017 0.0658365 0.0227505 0.0187368 0.00717185
threshold=0.000176974465 0.38742593000000008 8.5000000000000018 1.5000000000000002 1.0000000180025095e-35 0.48074075000000005 0.23748061000000004 0.48204927500000005 0.7071078500000002 8.5000000000000018 0.73123826500000011 0.32811352500000007 0.0017758486000000002 0.025978408000000005 0.97590012500000012 0.95689335500000017 14.500000000000002 0.067231640000000009 0.44858277000000008 87.500000000000014 0.89417691500000018 0.97826087500000003 0.0010362170000000001 20.500000000000004 0.57417585000000015 0.9649658000000001 3.5000000000000004 8.5000000000000018
decision_type=2 2 2 2 2 2 2 2 2 2 2 2 2 2 2 2 2 2 2 2 2 2 2 2 2 2 2 2
left_child=1 2 3 -1 5 6 20 9 -9 10 -6 -12 -13 14 15 -11 18 -18 19 23 -2 -22 26 -15 -25 -19 -23 -20
right_child=4 -3 -4 -5 7 -7 -8 8 -10 13 11 12 -14 16 -16 -17 17 25 27 -21 21 22 -24 24 -26 -27 -28 -29
leaf_value=299.29549791975904 -0.10303042283831952 1288.6538651329047 -0.070452477223980695 0 374.01600056716347 -2837.5099151762929 -42.926978057135507 49.618719630854791 0 0 -0.09820860153925659 -148.17855612482182 0 -0.10252205346181398 -0.1048089649519667 49.649576953465015 -0.31200052181444238 -0.10782392971708435 -0.11653918833259365 -0.1536733066826777 -0.09748919348866103 0.084176817126251538 -0.078860442233998185 -0.09053956854315709 0.083698449917968043 -0.16700399785289302 -0.036223376670515194 -0.14744018771349549
leaf_weight=0.0010027021126024238 0.72104021942229934 0.001017142346908805 0.018882750824664809 0.0010463308281032373 0.0011373049928767301 0.0010086628907258746 0.0013209670383306218 0.0010032694914351428 0.0011009803547068486 0.0026021223133725338 0.141092875273855 0.0010218998068012288 0.0020412336671142839 6.7349306848967636 0.36961858530733738 0.0010020270092354622 0.21683097111255012 0.20262277082029012 0.37505947719773547 0.2306941120420446 0.23764079173534469 0.082484934817330213 0.027377680467907339 0.061645374702948952 0.029948602410513558 0.24206675589084625 0.008407313402130967 0.64271752956087191
leaf_count=51 12943 154 422 46 161 170 55 41 70 137 2768 84 145 136040 5128 52 94 422 87 2 6935 98 727 1632 2 18 221 45
internal_value=0 139.322 27.2387 196.553 -0.60472 -5.4564 -0.180066 -0.0384857 31.985 -0.0492754 3.3127 -2.16499 -73.787 -0.103309 0.159786 21.5327 -0.114622 -0.198502 -0.107665 -0.103393 -0.0873956 -0.0541201 0.0289164 -0.101598 -0.0278802 -0.141463 0.0673259 -0.136669
internal_weight=0 0.0219489 0.0209318 0.00204903 10.3364 1.07928 1.07827 9.25714 0.00210425 9.25503 0.145293 0.144156 0.00306313 9.10974 0.373223 0.00360415 8.73652 0.66152 8.075 7.05722 1.07695 0.355911 0.11827 6.82652 0.091594 0.44469 0.0908922 1.01778
internal_count=168750 673 519 97 168077 21149 20979 146928 111 146817 3158 2997 229 143659 5317 189 138342 534 137808 137676 20924 7981 1046 137674 1634 440 319 132
is_linear=0
shrinkage=0.1


Tree=28
num_leaves=32
num_cat=0
split_feature=11 0 3 55 1 15 18 1 8 8 18 62 60 17 5 0 8 17 2 6 19 2 8 61 0 34 3 59 7 2 22
split_gain=124710 103801 989450 1.76733e+06 77133.5 147035 69148.4 17534 687196 509667 4064.8 2262.83 264347 211222 447.154 94.5382 395.176 17.4102 7906.02 0.310318 0.195169 0.0580147 0.0472544 0.118466 0.0416715 0.0383292 0.0591384 0.0283851 0.0160915 0.0103803 0.000559474
threshold=0.45923816500000009 0.000176974465 0.30678734000000007 0.30699931000000008 9.5000000000000018 1.5000000000000002 0.82085560000000013 8.5000000000000018 0.75235850000000004 0.74788135000000011 0.98076921500000014 0.025978408000000005 0.97530490000000014 0.94082635000000014 0.5961610100000001 0.00034167311000000007 0.78404877000000017 1.0000000180025095e-35 0.19458899500000001 14.500000000000002 0.067231640000000009 0.44858277000000008 0.89417691500000018 0.97826087500000003 0.0010362170000000001 20.500000000000004 0.57417585000000015 87.500000000000014 3.5000000000000004 0.9649658000000001 8.5000000000000018
decision_type=2 2 2 2 2 2 2 2 2 2 2 2 2 2 2 2 2 2 2 2 2 2 2 2 2 2 2 2 2 2 2
left_child=1 2 3 4 5 -1 -2 8 9 -3 -4 12 13 -9 -10 16 -14 18 22 21 -21 25 -13 -24 28 27 -27 -19 -25 -22 -23
right_child=6 7 10 -5 -6 -7 -8 11 14 -11 -12 17 15 -15 -16 -17 -18 19 -20 20 29 30 23 24 -26 26 -28 -29 -30 -31 -32
leaf_value=-1205.3227709921509 -973.56666440032006 -2430.2974218310333 -9.118791973169774 -3715.1338281027197 0 0 0 0 -0.097764311571793716 0 44.749035786053675 -0.10275756339584813 49.320073159757413 -1542.0297729407148 -45.794609127782202 -0.10370038763404708 -0.034837227271512311 -0.10228512465304418 198.20712581568759 -0.25490923665786747 -0.10648403370928919 -0.11444297465428938 -0.096951554904829831 0.082729545531106119 -0.075567446588108267 -0.089639697625178358 0.081910558076153467 -0.14552158768826556 -0.029490473650298978 -0.15621872116502797 -0.14091002637312991
leaf_weight=0.001073807485224319 0.0010538967368781673 0.0010571991224390389 0.064011876578661031 0.0010186626423092093 0.0040548442775654404 0.0019774563588725873 0.001131783753550053 0.0015920437367193388 0.13898462113661894 0.0014866101009829435 0.016857569459876154 0.61985423673568441 0.0010153753443849509 0.0010100785766553599 0.0011753113940358153 0.37222401448486753 0.008207335816223349 6.1063963949388178 0.0010150561679438388 0.23771828314324306 0.18554219399402427 0.34528179753977672 0.19562119562942826 0.076579013260925421 0.023553850673124543 0.056320774838582888 0.027681166547722569 0.21986645443291752 0.0075090909049322354 0.23340761661529541 0.60712994149598609
leaf_count=84 89 242 96 152 194 82 79 56 3127 85 39 11811 52 65 124 6357 284 136014 151 94 422 87 6292 92 673 1632 2 2 208 18 45
internal_value=0 -1.93875 -108.83 -1095.95 -308.435 -617.043 -627.721 -0.922834 -35.5875 -1410.84 2.5135 -0.388681 -7.89481 -860.537 -0.806199 0.155248 9.64301 -0.0654517 0.345194 -0.112873 -0.17993 -0.106801 -0.0860805 -0.0501246 0.0304824 -0.102963 -0.0269279 -0.10389 0.0666032 -0.135689 -0.131969
internal_weight=0 9.55922 0.0889942 0.00812477 0.00710611 0.00305126 0.00218568 9.47023 0.142704 0.00254381 0.0808694 9.32753 0.384049 0.00260212 0.14016 0.381447 0.00922271 8.94348 0.924132 8.01934 0.656668 7.36268 0.923117 0.303263 0.107642 6.41026 0.0840019 6.32626 0.0840881 0.41895 0.952412
internal_count=168750 168582 647 512 360 166 168 167935 3578 327 135 164357 6814 121 3251 6693 336 157543 19227 138316 534 137782 19076 7265 973 137650 1634 136016 300 440 132
is_linear=0
shrinkage=0.1


Tree=29
num_leaves=30
num_cat=0
split_feature=1 3 0 3 13 2 62 0 8 0 5 0 6 62 0 62 14 6 19 1 34 2 8 54 1 3 61 2 61
split_gain=4235.05 255038 16120.4 31952.4 4539.48 2.37266e+06 5103.14 173864 234800 2471.98 1917.5 1784.36 412.324 79.1435 4315.76 283.43 212.596 0.20026 0.100929 0.0422454 0.0388927 0.0530949 0.042902 0.0343106 0.0307056 0.0963659 0.0037351 0.00268621 0.00052798
threshold=8.5000000000000018 0.33508773000000008 0.000176974465 0.22756041500000004 1.0000000180025095e-35 0.156257585 0.021980676500000001 0.00028861528000000006 0.81725418000000005 0.00034167311000000007 0.47222843500000006 0.00021592268000000003 10.500000000000002 0.023532669000000003 0.00047855357500000008 0.025978408000000005 0.67425572000000011 14.500000000000002 0.067231640000000009 9.5000000000000018 20.500000000000004 0.34982942000000006 0.72804317500000015 0.97557205000000013 28.500000000000004 0.34178434500000004 0.59761905000000015 0.9649658000000001 0.80277780000000021
decision_type=2 2 2 2 2 2 2 2 2 2 2 2 2 2 2 2 2 2 2 2 2 2 2 2 2 2 2 2 2
left_child=1 12 3 -2 5 11 7 8 -6 10 -9 -4 -1 14 -8 16 -15 20 -19 23 22 -22 26 -13 -21 -26 -17 -20 -28
right_child=2 -3 4 -5 6 -7 13 9 -10 -11 -12 19 -14 15 -16 17 -18 18 27 24 21 -23 -24 -25 25 -27 28 -29 -30
leaf_value=-0.097199600179545487 0 1124.9243835773439 -89.786699246154143 -483.70139907483076 -1427.5568184689319 -3447.2748553504034 -146.92724683400542 0 0 -0.098197152025245121 -148.28060964656169 -0.078412733748115471 -42.348416083195076 0 -0.10704031468699571 -0.10597868624213864 49.691873116539568 -0.21967430397903867 -0.10523155421071638 -0.10150404853487754 -0.088669616151000774 0.080059899873623067 -0.10138926822452365 0.078993412729025866 -0.09718379321436188 0.073726927616667839 -0.14234838723845195 -0.14758808765201212 -0.11937456385363623
leaf_weight=0.12803230503350205 0.0040315676851673931 0.0010440445847521565 0.0012232951539726802 0.0010665779828268754 0.0010311644375660114 0.0010014650524681193 0.0010391310829652714 0.0015380277236545217 0.0026631904802343342 0.18735911091605295 0.0010205072958342498 0.026790066569446935 0.0013527510200277417 0.0015009494822589833 0.11071579517556529 0.49915168511213392 0.0010003263669204898 0.24777013150344718 0.16979350286068051 0.67625077039446069 0.051501422837760269 0.025618835408977247 4.9037165855022389 0.026602368969179224 0.10652176851363038 0.043551717861191719 0.43993126494616441 0.22294510900974274 0.79067886726415715
leaf_count=3269 300 403 45 210 75 214 43 55 95 4519 41 894 78 104 263 4722 129 94 422 17621 1631 5 130219 7 1815 131 537 18 791
internal_value=0 16.6342 -1.45411 -163.986 -1.33785 -8.12753 -0.554988 -16.5412 -617.735 -1.66958 -84.2357 -0.31298 -0.864188 -0.138163 -2.76761 -0.0977632 28.3468 -0.111364 -0.166284 -0.0861879 -0.106024 -0.0259111 -0.106876 0 -0.0917517 -0.0441157 -0.122072 -0.13086 -0.128102
internal_weight=0 0.130429 8.54602 0.00509815 8.54092 0.881941 7.65898 0.193612 0.00369435 0.189918 0.00255854 0.88094 0.129385 7.46536 0.111755 7.35361 0.00250128 7.35111 0.640509 0.879717 6.7106 0.0771203 6.63348 0.0533924 0.826324 0.150073 1.72976 0.392739 1.23061
internal_count=168750 3750 165000 510 164490 20727 143763 4785 170 4615 96 20513 3347 138978 306 138672 233 138439 534 20468 137905 1636 136269 901 19567 1946 6050 440 1328
is_linear=0
shrinkage=0.1


Tree=30
num_leaves=18
num_cat=0
split_feature=1 3 0 55 62 62 13 9 6 19 8 61 34 2 0 8 7
split_gain=54193.7 3.21629e+06 3142.18 4764.86 2587.65 333463 20.5089 7640.75 0.130733 0.052902 0.0397441 0.0982869 0.0353839 0.0476419 0.0325353 0.0276899 0.0128792
threshold=8.5000000000000018 0.32466215000000004 0.000176974465 0.22326064000000004 0.025978408000000005 0.023532669000000003 1.0000000180025095e-35 0.79473685000000016 14.500000000000002 0.067231640000000009 0.89417691500000018 0.97826087500000003 20.500000000000004 0.34982942000000006 0.0010362170000000001 0.72804317500000015 3.5000000000000004
decision_type=2 2 2 2 2 2 2 2 2 2 2 2 2 2 2 2 2
left_child=1 -1 3 -2 5 -4 7 10 12 -10 -6 -12 15 -14 16 -8 -13
right_child=2 -3 4 -5 6 -7 8 -9 9 -11 11 14 13 -15 -16 -17 -18
leaf_value=-0.096564556897486734 0 -4039.8335154155957 -0.1024296705695887 -198.77947339072918 -0.10193357555090846 -1159.4197006388367 -0.11955425116201508 191.6604328680755 -0.19565571750402019 -0.12676668860631274 -0.096279315859646108 0.079453486939975948 -0.0876256852552042 0.078144635342878535 -0.071068463162648712 -0.10123972125973929 -0.019902230031714624
leaf_weight=0.11593470009606921 0.0030212945712325681 0.0010049190523204734 0.31265955233032056 0.0010102731139340904 0.51086042984534596 0.0015009494822594829 1.5972775869284932 0.0010838501002581316 0.25029310230825519 0.36666886683296429 0.1601502404739108 0.066676972746790852 0.047139350994314877 0.023743768749227456 0.019736460966669256 4.4432899595516764 0.0064905796170933163
leaf_count=3267 259 483 6586 251 11910 236 6050 56 94 440 6291 92 1631 5 672 130219 208
internal_value=0 -68.7753 -0.478625 -79.4788 -0.427595 -9.30408 -0.0541903 0.435973 -0.110051 -0.155795 -0.0848942 -0.0482615 -0.105327 -0.0248271 0.0293319 -0.106184 0.0637488
internal_weight=0 0.11694 7.8116 0.00403157 7.80757 0.314161 7.49341 0.764999 6.72841 0.616962 0.763915 0.253054 6.11145 0.0708831 0.092904 6.04057 0.0731676
